digraph Tree {
node [shape=box] ;
0 [label="X[174] <= 0.5\ngini = 0.479\nsamples = 2285\nvalue = [1377, 908]"] ;
1 [label="X[259] <= 0.5\ngini = 0.468\nsamples = 2119\nvalue = [1326, 793]"] ;
0 -> 1 [labeldistance=2.5, labelangle=45, headlabel="True"] ;
2 [label="X[73] <= 0.5\ngini = 0.462\nsamples = 2072\nvalue = [1323, 749]"] ;
1 -> 2 ;
3 [label="X[767] <= 0.5\ngini = 0.467\nsamples = 2008\nvalue = [1260, 748]"] ;
2 -> 3 ;
4 [label="X[91] <= 0.5\ngini = 0.465\nsamples = 1990\nvalue = [1258, 732]"] ;
3 -> 4 ;
5 [label="X[172] <= 0.5\ngini = 0.459\nsamples = 1894\nvalue = [1218, 676]"] ;
4 -> 5 ;
6 [label="X[688] <= 0.5\ngini = 0.452\nsamples = 1834\nvalue = [1200, 634]"] ;
5 -> 6 ;
7 [label="X[698] <= 0.5\ngini = 0.449\nsamples = 1818\nvalue = [1199, 619]"] ;
6 -> 7 ;
8 [label="X[64] <= 0.5\ngini = 0.446\nsamples = 1805\nvalue = [1198, 607]"] ;
7 -> 8 ;
9 [label="X[982] <= 0.5\ngini = 0.45\nsamples = 1772\nvalue = [1165, 607]"] ;
8 -> 9 ;
10 [label="X[3131] <= 0.5\ngini = 0.448\nsamples = 1761\nvalue = [1164, 597]"] ;
9 -> 10 ;
11 [label="X[2436] <= 0.5\ngini = 0.446\nsamples = 1754\nvalue = [1164, 590]"] ;
10 -> 11 ;
12 [label="X[1056] <= 0.5\ngini = 0.444\nsamples = 1746\nvalue = [1164, 582]"] ;
11 -> 12 ;
13 [label="X[2865] <= 0.5\ngini = 0.442\nsamples = 1736\nvalue = [1163, 573]"] ;
12 -> 13 ;
14 [label="X[13] <= 0.5\ngini = 0.44\nsamples = 1727\nvalue = [1162, 565]"] ;
13 -> 14 ;
15 [label="X[751] <= 0.5\ngini = 0.433\nsamples = 1632\nvalue = [1114, 518]"] ;
14 -> 15 ;
16 [label="X[3326] <= 0.5\ngini = 0.431\nsamples = 1624\nvalue = [1113, 511]"] ;
15 -> 16 ;
17 [label="X[63] <= 0.5\ngini = 0.43\nsamples = 1619\nvalue = [1113, 506]"] ;
16 -> 17 ;
18 [label="X[712] <= 0.5\ngini = 0.433\nsamples = 1590\nvalue = [1085, 505]"] ;
17 -> 18 ;
19 [label="X[2232] <= 0.5\ngini = 0.431\nsamples = 1575\nvalue = [1081, 494]"] ;
18 -> 19 ;
20 [label="X[534] <= 0.5\ngini = 0.429\nsamples = 1570\nvalue = [1081, 489]"] ;
19 -> 20 ;
21 [label="X[1431] <= 0.5\ngini = 0.427\nsamples = 1563\nvalue = [1080, 483]"] ;
20 -> 21 ;
22 [label="X[115] <= 0.5\ngini = 0.425\nsamples = 1556\nvalue = [1079, 477]"] ;
21 -> 22 ;
23 [label="X[895] <= 0.5\ngini = 0.42\nsamples = 1507\nvalue = [1055, 452]"] ;
22 -> 23 ;
24 [label="X[695] <= 0.5\ngini = 0.417\nsamples = 1492\nvalue = [1050, 442]"] ;
23 -> 24 ;
25 [label="X[446] <= 0.5\ngini = 0.415\nsamples = 1483\nvalue = [1048, 435]"] ;
24 -> 25 ;
26 [label="X[3123] <= 0.5\ngini = 0.412\nsamples = 1470\nvalue = [1044, 426]"] ;
25 -> 26 ;
27 [label="X[3075] <= 0.5\ngini = 0.41\nsamples = 1466\nvalue = [1044, 422]"] ;
26 -> 27 ;
28 [label="X[1135] <= 0.5\ngini = 0.408\nsamples = 1462\nvalue = [1044, 418]"] ;
27 -> 28 ;
29 [label="X[1532] <= 0.5\ngini = 0.407\nsamples = 1458\nvalue = [1044, 414]"] ;
28 -> 29 ;
30 [label="X[1247] <= 0.5\ngini = 0.405\nsamples = 1452\nvalue = [1043, 409]"] ;
29 -> 30 ;
31 [label="X[1723] <= 0.5\ngini = 0.402\nsamples = 1442\nvalue = [1040, 402]"] ;
30 -> 31 ;
32 [label="X[95] <= 0.5\ngini = 0.4\nsamples = 1438\nvalue = [1040, 398]"] ;
31 -> 32 ;
33 [label="X[477] <= 0.5\ngini = 0.406\nsamples = 1383\nvalue = [991, 392]"] ;
32 -> 33 ;
34 [label="X[3079] <= 0.5\ngini = 0.404\nsamples = 1375\nvalue = [989, 386]"] ;
33 -> 34 ;
35 [label="X[1896] <= 0.5\ngini = 0.402\nsamples = 1372\nvalue = [989, 383]"] ;
34 -> 35 ;
36 [label="X[2254] <= 0.5\ngini = 0.401\nsamples = 1369\nvalue = [989, 380]"] ;
35 -> 36 ;
37 [label="X[3080] <= 0.5\ngini = 0.4\nsamples = 1366\nvalue = [989, 377]"] ;
36 -> 37 ;
38 [label="X[3621] <= 0.5\ngini = 0.398\nsamples = 1363\nvalue = [989, 374]"] ;
37 -> 38 ;
39 [label="X[3037] <= 0.5\ngini = 0.397\nsamples = 1360\nvalue = [989, 371]"] ;
38 -> 39 ;
40 [label="X[3137] <= 0.5\ngini = 0.395\nsamples = 1357\nvalue = [989, 368]"] ;
39 -> 40 ;
41 [label="X[10] <= 0.5\ngini = 0.394\nsamples = 1354\nvalue = [989, 365]"] ;
40 -> 41 ;
42 [label="X[3202] <= 0.5\ngini = 0.4\nsamples = 1306\nvalue = [945, 361]"] ;
41 -> 42 ;
43 [label="X[1433] <= 0.5\ngini = 0.399\nsamples = 1303\nvalue = [945, 358]"] ;
42 -> 43 ;
44 [label="X[687] <= 0.5\ngini = 0.397\nsamples = 1300\nvalue = [945, 355]"] ;
43 -> 44 ;
45 [label="X[407] <= 0.5\ngini = 0.394\nsamples = 1289\nvalue = [941, 348]"] ;
44 -> 45 ;
46 [label="X[593] <= 0.5\ngini = 0.391\nsamples = 1278\nvalue = [937, 341]"] ;
45 -> 46 ;
47 [label="X[74] <= 0.5\ngini = 0.389\nsamples = 1273\nvalue = [936, 337]"] ;
46 -> 47 ;
48 [label="X[211] <= 0.5\ngini = 0.385\nsamples = 1253\nvalue = [927, 326]"] ;
47 -> 48 ;
49 [label="X[624] <= 0.5\ngini = 0.383\nsamples = 1246\nvalue = [925, 321]"] ;
48 -> 49 ;
50 [label="X[3573] <= 0.5\ngini = 0.381\nsamples = 1244\nvalue = [925, 319]"] ;
49 -> 50 ;
51 [label="X[3951] <= 0.5\ngini = 0.38\nsamples = 1242\nvalue = [925, 317]"] ;
50 -> 51 ;
52 [label="X[947] <= 0.5\ngini = 0.379\nsamples = 1240\nvalue = [925, 315]"] ;
51 -> 52 ;
53 [label="X[72] <= 0.5\ngini = 0.378\nsamples = 1238\nvalue = [925, 313]"] ;
52 -> 53 ;
54 [label="X[1282] <= 0.5\ngini = 0.367\nsamples = 1096\nvalue = [831, 265]"] ;
53 -> 54 ;
55 [label="X[1260] <= 0.5\ngini = 0.364\nsamples = 1093\nvalue = [831, 262]"] ;
54 -> 55 ;
56 [label="X[310] <= 0.5\ngini = 0.362\nsamples = 1090\nvalue = [831, 259]"] ;
55 -> 56 ;
57 [label="X[3299] <= 0.5\ngini = 0.358\nsamples = 1075\nvalue = [824, 251]"] ;
56 -> 57 ;
58 [label="X[81] <= 0.5\ngini = 0.356\nsamples = 1073\nvalue = [824, 249]"] ;
57 -> 58 ;
59 [label="X[3040] <= 0.5\ngini = 0.355\nsamples = 1071\nvalue = [824, 247]"] ;
58 -> 59 ;
60 [label="X[2599] <= 0.5\ngini = 0.353\nsamples = 1069\nvalue = [824, 245]"] ;
59 -> 60 ;
61 [label="X[1819] <= 0.5\ngini = 0.352\nsamples = 1067\nvalue = [824, 243]"] ;
60 -> 61 ;
62 [label="X[3820] <= 0.5\ngini = 0.35\nsamples = 1065\nvalue = [824, 241]"] ;
61 -> 62 ;
63 [label="X[709] <= 0.5\ngini = 0.349\nsamples = 1063\nvalue = [824, 239]"] ;
62 -> 63 ;
64 [label="X[2034] <= 0.5\ngini = 0.347\nsamples = 1061\nvalue = [824, 237]"] ;
63 -> 64 ;
65 [label="X[1096] <= 0.5\ngini = 0.345\nsamples = 1059\nvalue = [824, 235]"] ;
64 -> 65 ;
66 [label="X[4007] <= 0.5\ngini = 0.344\nsamples = 1057\nvalue = [824, 233]"] ;
65 -> 66 ;
67 [label="X[3993] <= 0.5\ngini = 0.342\nsamples = 1055\nvalue = [824, 231]"] ;
66 -> 67 ;
68 [label="X[3095] <= 0.5\ngini = 0.34\nsamples = 1053\nvalue = [824, 229]"] ;
67 -> 68 ;
69 [label="X[3828] <= 0.5\ngini = 0.339\nsamples = 1051\nvalue = [824, 227]"] ;
68 -> 69 ;
70 [label="X[1995] <= 0.5\ngini = 0.337\nsamples = 1049\nvalue = [824, 225]"] ;
69 -> 70 ;
71 [label="X[3272] <= 0.5\ngini = 0.335\nsamples = 1047\nvalue = [824, 223]"] ;
70 -> 71 ;
72 [label="X[3646] <= 0.5\ngini = 0.334\nsamples = 1045\nvalue = [824, 221]"] ;
71 -> 72 ;
73 [label="X[3361] <= 0.5\ngini = 0.332\nsamples = 1043\nvalue = [824, 219]"] ;
72 -> 73 ;
74 [label="X[305] <= 0.5\ngini = 0.33\nsamples = 1041\nvalue = [824, 217]"] ;
73 -> 74 ;
75 [label="X[459] <= 0.5\ngini = 0.326\nsamples = 1032\nvalue = [820, 212]"] ;
74 -> 75 ;
76 [label="X[3456] <= 0.5\ngini = 0.323\nsamples = 1025\nvalue = [817, 208]"] ;
75 -> 76 ;
77 [label="X[215] <= 0.5\ngini = 0.322\nsamples = 1023\nvalue = [817, 206]"] ;
76 -> 77 ;
78 [label="X[357] <= 0.5\ngini = 0.319\nsamples = 1016\nvalue = [814, 202]"] ;
77 -> 78 ;
79 [label="X[226] <= 0.5\ngini = 0.315\nsamples = 1009\nvalue = [811, 198]"] ;
78 -> 79 ;
80 [label="X[2564] <= 0.5\ngini = 0.31\nsamples = 989\nvalue = [799, 190]"] ;
79 -> 80 ;
81 [label="X[906] <= 0.5\ngini = 0.308\nsamples = 987\nvalue = [799, 188]"] ;
80 -> 81 ;
82 [label="X[1344] <= 0.5\ngini = 0.306\nsamples = 982\nvalue = [797, 185]"] ;
81 -> 82 ;
83 [label="X[1453] <= 0.5\ngini = 0.303\nsamples = 977\nvalue = [795, 182]"] ;
82 -> 83 ;
84 [label="X[65] <= 0.5\ngini = 0.3\nsamples = 972\nvalue = [793, 179]"] ;
83 -> 84 ;
85 [label="X[2471] <= 0.5\ngini = 0.295\nsamples = 946\nvalue = [776, 170]"] ;
84 -> 85 ;
86 [label="X[1426] <= 0.5\ngini = 0.293\nsamples = 943\nvalue = [775, 168]"] ;
85 -> 86 ;
87 [label="X[181] <= 0.5\ngini = 0.291\nsamples = 940\nvalue = [774, 166]"] ;
86 -> 87 ;
88 [label="X[1781] <= 0.5\ngini = 0.289\nsamples = 937\nvalue = [773, 164]"] ;
87 -> 88 ;
89 [label="X[1162] <= 0.5\ngini = 0.287\nsamples = 934\nvalue = [772, 162]"] ;
88 -> 89 ;
90 [label="X[2154] <= 0.5\ngini = 0.285\nsamples = 931\nvalue = [771, 160]"] ;
89 -> 90 ;
91 [label="X[2265] <= 0.5\ngini = 0.283\nsamples = 928\nvalue = [770, 158]"] ;
90 -> 91 ;
92 [label="X[1767] <= 0.5\ngini = 0.28\nsamples = 925\nvalue = [769, 156]"] ;
91 -> 92 ;
93 [label="X[2872] <= 0.5\ngini = 0.278\nsamples = 922\nvalue = [768, 154]"] ;
92 -> 93 ;
94 [label="X[155] <= 0.5\ngini = 0.276\nsamples = 919\nvalue = [767, 152]"] ;
93 -> 94 ;
95 [label="X[2029] <= 0.5\ngini = 0.274\nsamples = 916\nvalue = [766, 150]"] ;
94 -> 95 ;
96 [label="X[453] <= 0.5\ngini = 0.272\nsamples = 913\nvalue = [765, 148]"] ;
95 -> 96 ;
97 [label="X[3312] <= 0.5\ngini = 0.269\nsamples = 910\nvalue = [764, 146]"] ;
96 -> 97 ;
98 [label="X[1377] <= 0.5\ngini = 0.268\nsamples = 909\nvalue = [764, 145]"] ;
97 -> 98 ;
99 [label="X[675] <= 0.5\ngini = 0.266\nsamples = 906\nvalue = [763, 143]"] ;
98 -> 99 ;
100 [label="X[262] <= 0.5\ngini = 0.264\nsamples = 903\nvalue = [762, 141]"] ;
99 -> 100 ;
101 [label="X[3987] <= 0.5\ngini = 0.26\nsamples = 897\nvalue = [759, 138]"] ;
100 -> 101 ;
102 [label="X[3153] <= 0.5\ngini = 0.259\nsamples = 896\nvalue = [759, 137]"] ;
101 -> 102 ;
103 [label="X[2141] <= 0.5\ngini = 0.258\nsamples = 895\nvalue = [759, 136]"] ;
102 -> 103 ;
104 [label="X[1776] <= 0.5\ngini = 0.256\nsamples = 894\nvalue = [759, 135]"] ;
103 -> 104 ;
105 [label="X[3019] <= 0.5\ngini = 0.255\nsamples = 893\nvalue = [759, 134]"] ;
104 -> 105 ;
106 [label="X[3947] <= 0.5\ngini = 0.254\nsamples = 892\nvalue = [759, 133]"] ;
105 -> 106 ;
107 [label="X[1530] <= 0.5\ngini = 0.252\nsamples = 891\nvalue = [759, 132]"] ;
106 -> 107 ;
108 [label="X[3094] <= 0.5\ngini = 0.251\nsamples = 890\nvalue = [759, 131]"] ;
107 -> 108 ;
109 [label="X[2413] <= 0.5\ngini = 0.25\nsamples = 889\nvalue = [759, 130]"] ;
108 -> 109 ;
110 [label="X[4713] <= 0.5\ngini = 0.248\nsamples = 888\nvalue = [759, 129]"] ;
109 -> 110 ;
111 [label="X[4292] <= 0.5\ngini = 0.247\nsamples = 887\nvalue = [759, 128]"] ;
110 -> 111 ;
112 [label="X[747] <= 0.5\ngini = 0.246\nsamples = 886\nvalue = [759, 127]"] ;
111 -> 112 ;
113 [label="X[4605] <= 0.5\ngini = 0.244\nsamples = 885\nvalue = [759, 126]"] ;
112 -> 113 ;
114 [label="X[2987] <= 0.5\ngini = 0.243\nsamples = 884\nvalue = [759, 125]"] ;
113 -> 114 ;
115 [label="X[3322] <= 0.5\ngini = 0.241\nsamples = 883\nvalue = [759, 124]"] ;
114 -> 115 ;
116 [label="X[2999] <= 0.5\ngini = 0.24\nsamples = 882\nvalue = [759, 123]"] ;
115 -> 116 ;
117 [label="X[1843] <= 0.5\ngini = 0.239\nsamples = 881\nvalue = [759, 122]"] ;
116 -> 117 ;
118 [label="X[3713] <= 0.5\ngini = 0.237\nsamples = 880\nvalue = [759, 121]"] ;
117 -> 118 ;
119 [label="X[3914] <= 0.5\ngini = 0.236\nsamples = 879\nvalue = [759, 120]"] ;
118 -> 119 ;
120 [label="X[449] <= 0.5\ngini = 0.234\nsamples = 878\nvalue = [759, 119]"] ;
119 -> 120 ;
121 [label="X[2350] <= 0.5\ngini = 0.233\nsamples = 877\nvalue = [759, 118]"] ;
120 -> 121 ;
122 [label="X[3128] <= 0.5\ngini = 0.231\nsamples = 876\nvalue = [759, 117]"] ;
121 -> 122 ;
123 [label="X[3286] <= 0.5\ngini = 0.23\nsamples = 875\nvalue = [759, 116]"] ;
122 -> 123 ;
124 [label="X[4067] <= 0.5\ngini = 0.229\nsamples = 874\nvalue = [759, 115]"] ;
123 -> 124 ;
125 [label="X[4250] <= 0.5\ngini = 0.227\nsamples = 873\nvalue = [759, 114]"] ;
124 -> 125 ;
126 [label="X[4108] <= 0.5\ngini = 0.226\nsamples = 872\nvalue = [759, 113]"] ;
125 -> 126 ;
127 [label="X[4052] <= 0.5\ngini = 0.224\nsamples = 871\nvalue = [759, 112]"] ;
126 -> 127 ;
128 [label="X[3393] <= 0.5\ngini = 0.223\nsamples = 870\nvalue = [759, 111]"] ;
127 -> 128 ;
129 [label="X[4623] <= 0.5\ngini = 0.221\nsamples = 869\nvalue = [759, 110]"] ;
128 -> 129 ;
130 [label="X[4013] <= 0.5\ngini = 0.22\nsamples = 868\nvalue = [759, 109]"] ;
129 -> 130 ;
131 [label="X[3300] <= 0.5\ngini = 0.218\nsamples = 867\nvalue = [759, 108]"] ;
130 -> 131 ;
132 [label="X[409] <= 0.5\ngini = 0.217\nsamples = 866\nvalue = [759, 107]"] ;
131 -> 132 ;
133 [label="X[4280] <= 0.5\ngini = 0.211\nsamples = 852\nvalue = [750, 102]"] ;
132 -> 133 ;
134 [label="X[2044] <= 0.5\ngini = 0.209\nsamples = 851\nvalue = [750, 101]"] ;
133 -> 134 ;
135 [label="X[4673] <= 0.5\ngini = 0.208\nsamples = 850\nvalue = [750, 100]"] ;
134 -> 135 ;
136 [label="X[4153] <= 0.5\ngini = 0.206\nsamples = 849\nvalue = [750, 99]"] ;
135 -> 136 ;
137 [label="X[4227] <= 0.5\ngini = 0.204\nsamples = 848\nvalue = [750, 98]"] ;
136 -> 137 ;
138 [label="X[4232] <= 0.5\ngini = 0.203\nsamples = 847\nvalue = [750, 97]"] ;
137 -> 138 ;
139 [label="X[2610] <= 0.5\ngini = 0.201\nsamples = 846\nvalue = [750, 96]"] ;
138 -> 139 ;
140 [label="X[4561] <= 0.5\ngini = 0.2\nsamples = 845\nvalue = [750, 95]"] ;
139 -> 140 ;
141 [label="X[3504] <= 0.5\ngini = 0.198\nsamples = 844\nvalue = [750, 94]"] ;
140 -> 141 ;
142 [label="X[4401] <= 0.5\ngini = 0.196\nsamples = 843\nvalue = [750, 93]"] ;
141 -> 142 ;
143 [label="X[3339] <= 0.5\ngini = 0.195\nsamples = 842\nvalue = [750, 92]"] ;
142 -> 143 ;
144 [label="X[3349] <= 0.5\ngini = 0.193\nsamples = 841\nvalue = [750, 91]"] ;
143 -> 144 ;
145 [label="X[3004] <= 0.5\ngini = 0.191\nsamples = 840\nvalue = [750, 90]"] ;
144 -> 145 ;
146 [label="X[3708] <= 0.5\ngini = 0.19\nsamples = 839\nvalue = [750, 89]"] ;
145 -> 146 ;
147 [label="X[3033] <= 0.5\ngini = 0.188\nsamples = 838\nvalue = [750, 88]"] ;
146 -> 147 ;
148 [label="X[3439] <= 0.5\ngini = 0.186\nsamples = 837\nvalue = [750, 87]"] ;
147 -> 148 ;
149 [label="X[3636] <= 0.5\ngini = 0.185\nsamples = 836\nvalue = [750, 86]"] ;
148 -> 149 ;
150 [label="gini = 0.183\nsamples = 835\nvalue = [750, 85]"] ;
149 -> 150 ;
151 [label="gini = 0.0\nsamples = 1\nvalue = [0, 1]"] ;
149 -> 151 ;
152 [label="gini = 0.0\nsamples = 1\nvalue = [0, 1]"] ;
148 -> 152 ;
153 [label="gini = 0.0\nsamples = 1\nvalue = [0, 1]"] ;
147 -> 153 ;
154 [label="gini = 0.0\nsamples = 1\nvalue = [0, 1]"] ;
146 -> 154 ;
155 [label="gini = 0.0\nsamples = 1\nvalue = [0, 1]"] ;
145 -> 155 ;
156 [label="gini = 0.0\nsamples = 1\nvalue = [0, 1]"] ;
144 -> 156 ;
157 [label="gini = 0.0\nsamples = 1\nvalue = [0, 1]"] ;
143 -> 157 ;
158 [label="gini = 0.0\nsamples = 1\nvalue = [0, 1]"] ;
142 -> 158 ;
159 [label="gini = 0.0\nsamples = 1\nvalue = [0, 1]"] ;
141 -> 159 ;
160 [label="gini = 0.0\nsamples = 1\nvalue = [0, 1]"] ;
140 -> 160 ;
161 [label="gini = 0.0\nsamples = 1\nvalue = [0, 1]"] ;
139 -> 161 ;
162 [label="gini = 0.0\nsamples = 1\nvalue = [0, 1]"] ;
138 -> 162 ;
163 [label="gini = 0.0\nsamples = 1\nvalue = [0, 1]"] ;
137 -> 163 ;
164 [label="gini = 0.0\nsamples = 1\nvalue = [0, 1]"] ;
136 -> 164 ;
165 [label="gini = 0.0\nsamples = 1\nvalue = [0, 1]"] ;
135 -> 165 ;
166 [label="gini = 0.0\nsamples = 1\nvalue = [0, 1]"] ;
134 -> 166 ;
167 [label="gini = 0.0\nsamples = 1\nvalue = [0, 1]"] ;
133 -> 167 ;
168 [label="X[566] <= 0.5\ngini = 0.459\nsamples = 14\nvalue = [9, 5]"] ;
132 -> 168 ;
169 [label="X[579] <= 0.5\ngini = 0.426\nsamples = 13\nvalue = [9, 4]"] ;
168 -> 169 ;
170 [label="X[3388] <= 0.5\ngini = 0.375\nsamples = 12\nvalue = [9, 3]"] ;
169 -> 170 ;
171 [label="X[4716] <= 0.5\ngini = 0.298\nsamples = 11\nvalue = [9, 2]"] ;
170 -> 171 ;
172 [label="X[3163] <= 0.5\ngini = 0.18\nsamples = 10\nvalue = [9, 1]"] ;
171 -> 172 ;
173 [label="gini = 0.0\nsamples = 9\nvalue = [9, 0]"] ;
172 -> 173 ;
174 [label="gini = 0.0\nsamples = 1\nvalue = [0, 1]"] ;
172 -> 174 ;
175 [label="gini = 0.0\nsamples = 1\nvalue = [0, 1]"] ;
171 -> 175 ;
176 [label="gini = 0.0\nsamples = 1\nvalue = [0, 1]"] ;
170 -> 176 ;
177 [label="gini = 0.0\nsamples = 1\nvalue = [0, 1]"] ;
169 -> 177 ;
178 [label="gini = 0.0\nsamples = 1\nvalue = [0, 1]"] ;
168 -> 178 ;
179 [label="gini = 0.0\nsamples = 1\nvalue = [0, 1]"] ;
131 -> 179 ;
180 [label="gini = 0.0\nsamples = 1\nvalue = [0, 1]"] ;
130 -> 180 ;
181 [label="gini = 0.0\nsamples = 1\nvalue = [0, 1]"] ;
129 -> 181 ;
182 [label="gini = 0.0\nsamples = 1\nvalue = [0, 1]"] ;
128 -> 182 ;
183 [label="gini = 0.0\nsamples = 1\nvalue = [0, 1]"] ;
127 -> 183 ;
184 [label="gini = 0.0\nsamples = 1\nvalue = [0, 1]"] ;
126 -> 184 ;
185 [label="gini = 0.0\nsamples = 1\nvalue = [0, 1]"] ;
125 -> 185 ;
186 [label="gini = 0.0\nsamples = 1\nvalue = [0, 1]"] ;
124 -> 186 ;
187 [label="gini = 0.0\nsamples = 1\nvalue = [0, 1]"] ;
123 -> 187 ;
188 [label="gini = 0.0\nsamples = 1\nvalue = [0, 1]"] ;
122 -> 188 ;
189 [label="gini = 0.0\nsamples = 1\nvalue = [0, 1]"] ;
121 -> 189 ;
190 [label="gini = 0.0\nsamples = 1\nvalue = [0, 1]"] ;
120 -> 190 ;
191 [label="gini = 0.0\nsamples = 1\nvalue = [0, 1]"] ;
119 -> 191 ;
192 [label="gini = 0.0\nsamples = 1\nvalue = [0, 1]"] ;
118 -> 192 ;
193 [label="gini = 0.0\nsamples = 1\nvalue = [0, 1]"] ;
117 -> 193 ;
194 [label="gini = 0.0\nsamples = 1\nvalue = [0, 1]"] ;
116 -> 194 ;
195 [label="gini = 0.0\nsamples = 1\nvalue = [0, 1]"] ;
115 -> 195 ;
196 [label="gini = 0.0\nsamples = 1\nvalue = [0, 1]"] ;
114 -> 196 ;
197 [label="gini = 0.0\nsamples = 1\nvalue = [0, 1]"] ;
113 -> 197 ;
198 [label="gini = 0.0\nsamples = 1\nvalue = [0, 1]"] ;
112 -> 198 ;
199 [label="gini = 0.0\nsamples = 1\nvalue = [0, 1]"] ;
111 -> 199 ;
200 [label="gini = 0.0\nsamples = 1\nvalue = [0, 1]"] ;
110 -> 200 ;
201 [label="gini = 0.0\nsamples = 1\nvalue = [0, 1]"] ;
109 -> 201 ;
202 [label="gini = 0.0\nsamples = 1\nvalue = [0, 1]"] ;
108 -> 202 ;
203 [label="gini = 0.0\nsamples = 1\nvalue = [0, 1]"] ;
107 -> 203 ;
204 [label="gini = 0.0\nsamples = 1\nvalue = [0, 1]"] ;
106 -> 204 ;
205 [label="gini = 0.0\nsamples = 1\nvalue = [0, 1]"] ;
105 -> 205 ;
206 [label="gini = 0.0\nsamples = 1\nvalue = [0, 1]"] ;
104 -> 206 ;
207 [label="gini = 0.0\nsamples = 1\nvalue = [0, 1]"] ;
103 -> 207 ;
208 [label="gini = 0.0\nsamples = 1\nvalue = [0, 1]"] ;
102 -> 208 ;
209 [label="gini = 0.0\nsamples = 1\nvalue = [0, 1]"] ;
101 -> 209 ;
210 [label="X[15] <= 0.5\ngini = 0.5\nsamples = 6\nvalue = [3, 3]"] ;
100 -> 210 ;
211 [label="X[1] <= 0.5\ngini = 0.375\nsamples = 4\nvalue = [3, 1]"] ;
210 -> 211 ;
212 [label="gini = 0.0\nsamples = 1\nvalue = [0, 1]"] ;
211 -> 212 ;
213 [label="gini = 0.0\nsamples = 3\nvalue = [3, 0]"] ;
211 -> 213 ;
214 [label="gini = 0.0\nsamples = 2\nvalue = [0, 2]"] ;
210 -> 214 ;
215 [label="X[52] <= 0.5\ngini = 0.444\nsamples = 3\nvalue = [1, 2]"] ;
99 -> 215 ;
216 [label="gini = 0.0\nsamples = 2\nvalue = [0, 2]"] ;
215 -> 216 ;
217 [label="gini = 0.0\nsamples = 1\nvalue = [1, 0]"] ;
215 -> 217 ;
218 [label="X[1150] <= 0.5\ngini = 0.444\nsamples = 3\nvalue = [1, 2]"] ;
98 -> 218 ;
219 [label="gini = 0.0\nsamples = 2\nvalue = [0, 2]"] ;
218 -> 219 ;
220 [label="gini = 0.0\nsamples = 1\nvalue = [1, 0]"] ;
218 -> 220 ;
221 [label="gini = 0.0\nsamples = 1\nvalue = [0, 1]"] ;
97 -> 221 ;
222 [label="X[1029] <= 0.5\ngini = 0.444\nsamples = 3\nvalue = [1, 2]"] ;
96 -> 222 ;
223 [label="gini = 0.0\nsamples = 2\nvalue = [0, 2]"] ;
222 -> 223 ;
224 [label="gini = 0.0\nsamples = 1\nvalue = [1, 0]"] ;
222 -> 224 ;
225 [label="X[1] <= 0.5\ngini = 0.444\nsamples = 3\nvalue = [1, 2]"] ;
95 -> 225 ;
226 [label="gini = 0.0\nsamples = 1\nvalue = [1, 0]"] ;
225 -> 226 ;
227 [label="gini = 0.0\nsamples = 2\nvalue = [0, 2]"] ;
225 -> 227 ;
228 [label="X[1932] <= 0.5\ngini = 0.444\nsamples = 3\nvalue = [1, 2]"] ;
94 -> 228 ;
229 [label="gini = 0.0\nsamples = 2\nvalue = [0, 2]"] ;
228 -> 229 ;
230 [label="gini = 0.0\nsamples = 1\nvalue = [1, 0]"] ;
228 -> 230 ;
231 [label="X[707] <= 0.5\ngini = 0.444\nsamples = 3\nvalue = [1, 2]"] ;
93 -> 231 ;
232 [label="gini = 0.0\nsamples = 2\nvalue = [0, 2]"] ;
231 -> 232 ;
233 [label="gini = 0.0\nsamples = 1\nvalue = [1, 0]"] ;
231 -> 233 ;
234 [label="X[2905] <= 0.5\ngini = 0.444\nsamples = 3\nvalue = [1, 2]"] ;
92 -> 234 ;
235 [label="gini = 0.0\nsamples = 2\nvalue = [0, 2]"] ;
234 -> 235 ;
236 [label="gini = 0.0\nsamples = 1\nvalue = [1, 0]"] ;
234 -> 236 ;
237 [label="X[89] <= 0.5\ngini = 0.444\nsamples = 3\nvalue = [1, 2]"] ;
91 -> 237 ;
238 [label="gini = 0.0\nsamples = 2\nvalue = [0, 2]"] ;
237 -> 238 ;
239 [label="gini = 0.0\nsamples = 1\nvalue = [1, 0]"] ;
237 -> 239 ;
240 [label="X[2153] <= 0.5\ngini = 0.444\nsamples = 3\nvalue = [1, 2]"] ;
90 -> 240 ;
241 [label="gini = 0.0\nsamples = 2\nvalue = [0, 2]"] ;
240 -> 241 ;
242 [label="gini = 0.0\nsamples = 1\nvalue = [1, 0]"] ;
240 -> 242 ;
243 [label="X[1538] <= 0.5\ngini = 0.444\nsamples = 3\nvalue = [1, 2]"] ;
89 -> 243 ;
244 [label="gini = 0.0\nsamples = 2\nvalue = [0, 2]"] ;
243 -> 244 ;
245 [label="gini = 0.0\nsamples = 1\nvalue = [1, 0]"] ;
243 -> 245 ;
246 [label="X[749] <= 0.5\ngini = 0.444\nsamples = 3\nvalue = [1, 2]"] ;
88 -> 246 ;
247 [label="gini = 0.0\nsamples = 2\nvalue = [0, 2]"] ;
246 -> 247 ;
248 [label="gini = 0.0\nsamples = 1\nvalue = [1, 0]"] ;
246 -> 248 ;
249 [label="X[182] <= 0.5\ngini = 0.444\nsamples = 3\nvalue = [1, 2]"] ;
87 -> 249 ;
250 [label="gini = 0.0\nsamples = 2\nvalue = [0, 2]"] ;
249 -> 250 ;
251 [label="gini = 0.0\nsamples = 1\nvalue = [1, 0]"] ;
249 -> 251 ;
252 [label="X[2445] <= 0.5\ngini = 0.444\nsamples = 3\nvalue = [1, 2]"] ;
86 -> 252 ;
253 [label="gini = 0.0\nsamples = 2\nvalue = [0, 2]"] ;
252 -> 253 ;
254 [label="gini = 0.0\nsamples = 1\nvalue = [1, 0]"] ;
252 -> 254 ;
255 [label="X[1] <= 0.5\ngini = 0.444\nsamples = 3\nvalue = [1, 2]"] ;
85 -> 255 ;
256 [label="gini = 0.0\nsamples = 2\nvalue = [0, 2]"] ;
255 -> 256 ;
257 [label="gini = 0.0\nsamples = 1\nvalue = [1, 0]"] ;
255 -> 257 ;
258 [label="X[3392] <= 0.5\ngini = 0.453\nsamples = 26\nvalue = [17, 9]"] ;
84 -> 258 ;
259 [label="X[491] <= 0.5\ngini = 0.435\nsamples = 25\nvalue = [17, 8]"] ;
258 -> 259 ;
260 [label="X[3613] <= 0.5\ngini = 0.413\nsamples = 24\nvalue = [17, 7]"] ;
259 -> 260 ;
261 [label="X[1682] <= 0.5\ngini = 0.386\nsamples = 23\nvalue = [17, 6]"] ;
260 -> 261 ;
262 [label="X[2064] <= 0.5\ngini = 0.351\nsamples = 22\nvalue = [17, 5]"] ;
261 -> 262 ;
263 [label="X[3489] <= 0.5\ngini = 0.308\nsamples = 21\nvalue = [17, 4]"] ;
262 -> 263 ;
264 [label="X[824] <= 0.5\ngini = 0.255\nsamples = 20\nvalue = [17, 3]"] ;
263 -> 264 ;
265 [label="X[1293] <= 0.5\ngini = 0.188\nsamples = 19\nvalue = [17, 2]"] ;
264 -> 265 ;
266 [label="X[2771] <= 0.5\ngini = 0.105\nsamples = 18\nvalue = [17, 1]"] ;
265 -> 266 ;
267 [label="gini = 0.0\nsamples = 17\nvalue = [17, 0]"] ;
266 -> 267 ;
268 [label="gini = 0.0\nsamples = 1\nvalue = [0, 1]"] ;
266 -> 268 ;
269 [label="gini = 0.0\nsamples = 1\nvalue = [0, 1]"] ;
265 -> 269 ;
270 [label="gini = 0.0\nsamples = 1\nvalue = [0, 1]"] ;
264 -> 270 ;
271 [label="gini = 0.0\nsamples = 1\nvalue = [0, 1]"] ;
263 -> 271 ;
272 [label="gini = 0.0\nsamples = 1\nvalue = [0, 1]"] ;
262 -> 272 ;
273 [label="gini = 0.0\nsamples = 1\nvalue = [0, 1]"] ;
261 -> 273 ;
274 [label="gini = 0.0\nsamples = 1\nvalue = [0, 1]"] ;
260 -> 274 ;
275 [label="gini = 0.0\nsamples = 1\nvalue = [0, 1]"] ;
259 -> 275 ;
276 [label="gini = 0.0\nsamples = 1\nvalue = [0, 1]"] ;
258 -> 276 ;
277 [label="X[1] <= 0.5\ngini = 0.48\nsamples = 5\nvalue = [2, 3]"] ;
83 -> 277 ;
278 [label="gini = 0.0\nsamples = 2\nvalue = [0, 2]"] ;
277 -> 278 ;
279 [label="X[1072] <= 0.5\ngini = 0.444\nsamples = 3\nvalue = [2, 1]"] ;
277 -> 279 ;
280 [label="gini = 0.0\nsamples = 2\nvalue = [2, 0]"] ;
279 -> 280 ;
281 [label="gini = 0.0\nsamples = 1\nvalue = [0, 1]"] ;
279 -> 281 ;
282 [label="X[2413] <= 0.5\ngini = 0.48\nsamples = 5\nvalue = [2, 3]"] ;
82 -> 282 ;
283 [label="X[1881] <= 0.5\ngini = 0.375\nsamples = 4\nvalue = [1, 3]"] ;
282 -> 283 ;
284 [label="gini = 0.0\nsamples = 3\nvalue = [0, 3]"] ;
283 -> 284 ;
285 [label="gini = 0.0\nsamples = 1\nvalue = [1, 0]"] ;
283 -> 285 ;
286 [label="gini = 0.0\nsamples = 1\nvalue = [1, 0]"] ;
282 -> 286 ;
287 [label="X[1409] <= 0.5\ngini = 0.48\nsamples = 5\nvalue = [2, 3]"] ;
81 -> 287 ;
288 [label="X[907] <= 0.5\ngini = 0.375\nsamples = 4\nvalue = [1, 3]"] ;
287 -> 288 ;
289 [label="gini = 0.0\nsamples = 3\nvalue = [0, 3]"] ;
288 -> 289 ;
290 [label="gini = 0.0\nsamples = 1\nvalue = [1, 0]"] ;
288 -> 290 ;
291 [label="gini = 0.0\nsamples = 1\nvalue = [1, 0]"] ;
287 -> 291 ;
292 [label="gini = 0.0\nsamples = 2\nvalue = [0, 2]"] ;
80 -> 292 ;
293 [label="X[2071] <= 0.5\ngini = 0.48\nsamples = 20\nvalue = [12, 8]"] ;
79 -> 293 ;
294 [label="X[4611] <= 0.5\ngini = 0.465\nsamples = 19\nvalue = [12, 7]"] ;
293 -> 294 ;
295 [label="X[1] <= 0.5\ngini = 0.444\nsamples = 18\nvalue = [12, 6]"] ;
294 -> 295 ;
296 [label="X[29] <= 0.5\ngini = 0.49\nsamples = 14\nvalue = [8, 6]"] ;
295 -> 296 ;
297 [label="X[0] <= 0.5\ngini = 0.5\nsamples = 12\nvalue = [6, 6]"] ;
296 -> 297 ;
298 [label="X[3407] <= 0.5\ngini = 0.469\nsamples = 8\nvalue = [5, 3]"] ;
297 -> 298 ;
299 [label="X[3125] <= 0.5\ngini = 0.408\nsamples = 7\nvalue = [5, 2]"] ;
298 -> 299 ;
300 [label="X[868] <= 0.5\ngini = 0.278\nsamples = 6\nvalue = [5, 1]"] ;
299 -> 300 ;
301 [label="gini = 0.0\nsamples = 5\nvalue = [5, 0]"] ;
300 -> 301 ;
302 [label="gini = 0.0\nsamples = 1\nvalue = [0, 1]"] ;
300 -> 302 ;
303 [label="gini = 0.0\nsamples = 1\nvalue = [0, 1]"] ;
299 -> 303 ;
304 [label="gini = 0.0\nsamples = 1\nvalue = [0, 1]"] ;
298 -> 304 ;
305 [label="X[1426] <= 0.5\ngini = 0.375\nsamples = 4\nvalue = [1, 3]"] ;
297 -> 305 ;
306 [label="gini = 0.0\nsamples = 3\nvalue = [0, 3]"] ;
305 -> 306 ;
307 [label="gini = 0.0\nsamples = 1\nvalue = [1, 0]"] ;
305 -> 307 ;
308 [label="gini = 0.0\nsamples = 2\nvalue = [2, 0]"] ;
296 -> 308 ;
309 [label="gini = 0.0\nsamples = 4\nvalue = [4, 0]"] ;
295 -> 309 ;
310 [label="gini = 0.0\nsamples = 1\nvalue = [0, 1]"] ;
294 -> 310 ;
311 [label="gini = 0.0\nsamples = 1\nvalue = [0, 1]"] ;
293 -> 311 ;
312 [label="X[98] <= 0.5\ngini = 0.49\nsamples = 7\nvalue = [3, 4]"] ;
78 -> 312 ;
313 [label="X[1699] <= 0.5\ngini = 0.444\nsamples = 6\nvalue = [2, 4]"] ;
312 -> 313 ;
314 [label="X[1767] <= 0.5\ngini = 0.32\nsamples = 5\nvalue = [1, 4]"] ;
313 -> 314 ;
315 [label="gini = 0.0\nsamples = 4\nvalue = [0, 4]"] ;
314 -> 315 ;
316 [label="gini = 0.0\nsamples = 1\nvalue = [1, 0]"] ;
314 -> 316 ;
317 [label="gini = 0.0\nsamples = 1\nvalue = [1, 0]"] ;
313 -> 317 ;
318 [label="gini = 0.0\nsamples = 1\nvalue = [1, 0]"] ;
312 -> 318 ;
319 [label="X[216] <= 0.5\ngini = 0.49\nsamples = 7\nvalue = [3, 4]"] ;
77 -> 319 ;
320 [label="X[365] <= 0.5\ngini = 0.444\nsamples = 6\nvalue = [2, 4]"] ;
319 -> 320 ;
321 [label="X[2088] <= 0.5\ngini = 0.32\nsamples = 5\nvalue = [1, 4]"] ;
320 -> 321 ;
322 [label="gini = 0.0\nsamples = 4\nvalue = [0, 4]"] ;
321 -> 322 ;
323 [label="gini = 0.0\nsamples = 1\nvalue = [1, 0]"] ;
321 -> 323 ;
324 [label="gini = 0.0\nsamples = 1\nvalue = [1, 0]"] ;
320 -> 324 ;
325 [label="gini = 0.0\nsamples = 1\nvalue = [1, 0]"] ;
319 -> 325 ;
326 [label="gini = 0.0\nsamples = 2\nvalue = [0, 2]"] ;
76 -> 326 ;
327 [label="X[2188] <= 0.5\ngini = 0.49\nsamples = 7\nvalue = [3, 4]"] ;
75 -> 327 ;
328 [label="X[918] <= 0.5\ngini = 0.48\nsamples = 5\nvalue = [3, 2]"] ;
327 -> 328 ;
329 [label="X[218] <= 0.5\ngini = 0.375\nsamples = 4\nvalue = [3, 1]"] ;
328 -> 329 ;
330 [label="gini = 0.0\nsamples = 3\nvalue = [3, 0]"] ;
329 -> 330 ;
331 [label="gini = 0.0\nsamples = 1\nvalue = [0, 1]"] ;
329 -> 331 ;
332 [label="gini = 0.0\nsamples = 1\nvalue = [0, 1]"] ;
328 -> 332 ;
333 [label="gini = 0.0\nsamples = 2\nvalue = [0, 2]"] ;
327 -> 333 ;
334 [label="X[357] <= 0.5\ngini = 0.494\nsamples = 9\nvalue = [4, 5]"] ;
74 -> 334 ;
335 [label="X[649] <= 0.5\ngini = 0.469\nsamples = 8\nvalue = [3, 5]"] ;
334 -> 335 ;
336 [label="X[648] <= 0.5\ngini = 0.408\nsamples = 7\nvalue = [2, 5]"] ;
335 -> 336 ;
337 [label="X[815] <= 0.5\ngini = 0.278\nsamples = 6\nvalue = [1, 5]"] ;
336 -> 337 ;
338 [label="gini = 0.0\nsamples = 5\nvalue = [0, 5]"] ;
337 -> 338 ;
339 [label="gini = 0.0\nsamples = 1\nvalue = [1, 0]"] ;
337 -> 339 ;
340 [label="gini = 0.0\nsamples = 1\nvalue = [1, 0]"] ;
336 -> 340 ;
341 [label="gini = 0.0\nsamples = 1\nvalue = [1, 0]"] ;
335 -> 341 ;
342 [label="gini = 0.0\nsamples = 1\nvalue = [1, 0]"] ;
334 -> 342 ;
343 [label="gini = 0.0\nsamples = 2\nvalue = [0, 2]"] ;
73 -> 343 ;
344 [label="gini = 0.0\nsamples = 2\nvalue = [0, 2]"] ;
72 -> 344 ;
345 [label="gini = 0.0\nsamples = 2\nvalue = [0, 2]"] ;
71 -> 345 ;
346 [label="gini = 0.0\nsamples = 2\nvalue = [0, 2]"] ;
70 -> 346 ;
347 [label="gini = 0.0\nsamples = 2\nvalue = [0, 2]"] ;
69 -> 347 ;
348 [label="gini = 0.0\nsamples = 2\nvalue = [0, 2]"] ;
68 -> 348 ;
349 [label="gini = 0.0\nsamples = 2\nvalue = [0, 2]"] ;
67 -> 349 ;
350 [label="gini = 0.0\nsamples = 2\nvalue = [0, 2]"] ;
66 -> 350 ;
351 [label="gini = 0.0\nsamples = 2\nvalue = [0, 2]"] ;
65 -> 351 ;
352 [label="gini = 0.0\nsamples = 2\nvalue = [0, 2]"] ;
64 -> 352 ;
353 [label="gini = 0.0\nsamples = 2\nvalue = [0, 2]"] ;
63 -> 353 ;
354 [label="gini = 0.0\nsamples = 2\nvalue = [0, 2]"] ;
62 -> 354 ;
355 [label="gini = 0.0\nsamples = 2\nvalue = [0, 2]"] ;
61 -> 355 ;
356 [label="gini = 0.0\nsamples = 2\nvalue = [0, 2]"] ;
60 -> 356 ;
357 [label="gini = 0.0\nsamples = 2\nvalue = [0, 2]"] ;
59 -> 357 ;
358 [label="gini = 0.0\nsamples = 2\nvalue = [0, 2]"] ;
58 -> 358 ;
359 [label="gini = 0.0\nsamples = 2\nvalue = [0, 2]"] ;
57 -> 359 ;
360 [label="X[0] <= 0.5\ngini = 0.498\nsamples = 15\nvalue = [7, 8]"] ;
56 -> 360 ;
361 [label="X[1408] <= 0.5\ngini = 0.473\nsamples = 13\nvalue = [5, 8]"] ;
360 -> 361 ;
362 [label="X[936] <= 0.5\ngini = 0.444\nsamples = 12\nvalue = [4, 8]"] ;
361 -> 362 ;
363 [label="X[1123] <= 0.5\ngini = 0.397\nsamples = 11\nvalue = [3, 8]"] ;
362 -> 363 ;
364 [label="X[120] <= 0.5\ngini = 0.32\nsamples = 10\nvalue = [2, 8]"] ;
363 -> 364 ;
365 [label="X[117] <= 0.5\ngini = 0.198\nsamples = 9\nvalue = [1, 8]"] ;
364 -> 365 ;
366 [label="X[1] <= 0.5\ngini = 0.245\nsamples = 7\nvalue = [1, 6]"] ;
365 -> 366 ;
367 [label="gini = 0.0\nsamples = 3\nvalue = [0, 3]"] ;
366 -> 367 ;
368 [label="X[785] <= 0.5\ngini = 0.375\nsamples = 4\nvalue = [1, 3]"] ;
366 -> 368 ;
369 [label="gini = 0.0\nsamples = 3\nvalue = [0, 3]"] ;
368 -> 369 ;
370 [label="gini = 0.0\nsamples = 1\nvalue = [1, 0]"] ;
368 -> 370 ;
371 [label="gini = 0.0\nsamples = 2\nvalue = [0, 2]"] ;
365 -> 371 ;
372 [label="gini = 0.0\nsamples = 1\nvalue = [1, 0]"] ;
364 -> 372 ;
373 [label="gini = 0.0\nsamples = 1\nvalue = [1, 0]"] ;
363 -> 373 ;
374 [label="gini = 0.0\nsamples = 1\nvalue = [1, 0]"] ;
362 -> 374 ;
375 [label="gini = 0.0\nsamples = 1\nvalue = [1, 0]"] ;
361 -> 375 ;
376 [label="gini = 0.0\nsamples = 2\nvalue = [2, 0]"] ;
360 -> 376 ;
377 [label="gini = 0.0\nsamples = 3\nvalue = [0, 3]"] ;
55 -> 377 ;
378 [label="gini = 0.0\nsamples = 3\nvalue = [0, 3]"] ;
54 -> 378 ;
379 [label="X[77] <= 0.5\ngini = 0.448\nsamples = 142\nvalue = [94, 48]"] ;
53 -> 379 ;
380 [label="X[308] <= 0.5\ngini = 0.441\nsamples = 140\nvalue = [94, 46]"] ;
379 -> 380 ;
381 [label="X[69] <= 0.5\ngini = 0.434\nsamples = 138\nvalue = [94, 44]"] ;
380 -> 381 ;
382 [label="X[141] <= 0.5\ngini = 0.427\nsamples = 136\nvalue = [94, 42]"] ;
381 -> 382 ;
383 [label="X[2993] <= 0.5\ngini = 0.419\nsamples = 134\nvalue = [94, 40]"] ;
382 -> 383 ;
384 [label="X[3126] <= 0.5\ngini = 0.41\nsamples = 132\nvalue = [94, 38]"] ;
383 -> 384 ;
385 [label="X[3380] <= 0.5\ngini = 0.405\nsamples = 131\nvalue = [94, 37]"] ;
384 -> 385 ;
386 [label="X[4598] <= 0.5\ngini = 0.4\nsamples = 130\nvalue = [94, 36]"] ;
385 -> 386 ;
387 [label="X[3370] <= 0.5\ngini = 0.395\nsamples = 129\nvalue = [94, 35]"] ;
386 -> 387 ;
388 [label="X[4558] <= 0.5\ngini = 0.39\nsamples = 128\nvalue = [94, 34]"] ;
387 -> 388 ;
389 [label="X[3977] <= 0.5\ngini = 0.385\nsamples = 127\nvalue = [94, 33]"] ;
388 -> 389 ;
390 [label="X[4372] <= 0.5\ngini = 0.379\nsamples = 126\nvalue = [94, 32]"] ;
389 -> 390 ;
391 [label="X[2185] <= 0.5\ngini = 0.373\nsamples = 125\nvalue = [94, 31]"] ;
390 -> 391 ;
392 [label="X[4523] <= 0.5\ngini = 0.367\nsamples = 124\nvalue = [94, 30]"] ;
391 -> 392 ;
393 [label="X[949] <= 0.5\ngini = 0.36\nsamples = 123\nvalue = [94, 29]"] ;
392 -> 393 ;
394 [label="X[3928] <= 0.5\ngini = 0.354\nsamples = 122\nvalue = [94, 28]"] ;
393 -> 394 ;
395 [label="X[3188] <= 0.5\ngini = 0.347\nsamples = 121\nvalue = [94, 27]"] ;
394 -> 395 ;
396 [label="X[721] <= 0.5\ngini = 0.339\nsamples = 120\nvalue = [94, 26]"] ;
395 -> 396 ;
397 [label="X[3102] <= 0.5\ngini = 0.326\nsamples = 117\nvalue = [93, 24]"] ;
396 -> 397 ;
398 [label="X[273] <= 0.5\ngini = 0.318\nsamples = 116\nvalue = [93, 23]"] ;
397 -> 398 ;
399 [label="X[1407] <= 0.5\ngini = 0.309\nsamples = 115\nvalue = [93, 22]"] ;
398 -> 399 ;
400 [label="X[3743] <= 0.5\ngini = 0.301\nsamples = 114\nvalue = [93, 21]"] ;
399 -> 400 ;
401 [label="X[293] <= 0.5\ngini = 0.291\nsamples = 113\nvalue = [93, 20]"] ;
400 -> 401 ;
402 [label="X[270] <= 0.5\ngini = 0.282\nsamples = 112\nvalue = [93, 19]"] ;
401 -> 402 ;
403 [label="X[39] <= 0.5\ngini = 0.272\nsamples = 111\nvalue = [93, 18]"] ;
402 -> 403 ;
404 [label="X[3884] <= 0.5\ngini = 0.261\nsamples = 110\nvalue = [93, 17]"] ;
403 -> 404 ;
405 [label="X[904] <= 0.5\ngini = 0.25\nsamples = 109\nvalue = [93, 16]"] ;
404 -> 405 ;
406 [label="X[514] <= 0.5\ngini = 0.239\nsamples = 108\nvalue = [93, 15]"] ;
405 -> 406 ;
407 [label="X[3258] <= 0.5\ngini = 0.227\nsamples = 107\nvalue = [93, 14]"] ;
406 -> 407 ;
408 [label="X[283] <= 0.5\ngini = 0.215\nsamples = 106\nvalue = [93, 13]"] ;
407 -> 408 ;
409 [label="X[2057] <= 0.5\ngini = 0.202\nsamples = 105\nvalue = [93, 12]"] ;
408 -> 409 ;
410 [label="X[1683] <= 0.5\ngini = 0.189\nsamples = 104\nvalue = [93, 11]"] ;
409 -> 410 ;
411 [label="X[3800] <= 0.5\ngini = 0.175\nsamples = 103\nvalue = [93, 10]"] ;
410 -> 411 ;
412 [label="X[344] <= 0.5\ngini = 0.161\nsamples = 102\nvalue = [93, 9]"] ;
411 -> 412 ;
413 [label="X[3538] <= 0.5\ngini = 0.146\nsamples = 101\nvalue = [93, 8]"] ;
412 -> 413 ;
414 [label="X[3522] <= 0.5\ngini = 0.13\nsamples = 100\nvalue = [93, 7]"] ;
413 -> 414 ;
415 [label="X[3845] <= 0.5\ngini = 0.114\nsamples = 99\nvalue = [93, 6]"] ;
414 -> 415 ;
416 [label="X[1493] <= 0.5\ngini = 0.097\nsamples = 98\nvalue = [93, 5]"] ;
415 -> 416 ;
417 [label="X[29] <= 0.5\ngini = 0.079\nsamples = 97\nvalue = [93, 4]"] ;
416 -> 417 ;
418 [label="X[3775] <= 0.5\ngini = 0.061\nsamples = 96\nvalue = [93, 3]"] ;
417 -> 418 ;
419 [label="X[749] <= 0.5\ngini = 0.041\nsamples = 95\nvalue = [93, 2]"] ;
418 -> 419 ;
420 [label="X[194] <= 0.5\ngini = 0.021\nsamples = 94\nvalue = [93, 1]"] ;
419 -> 420 ;
421 [label="gini = 0.0\nsamples = 92\nvalue = [92, 0]"] ;
420 -> 421 ;
422 [label="X[1] <= 0.5\ngini = 0.5\nsamples = 2\nvalue = [1, 1]"] ;
420 -> 422 ;
423 [label="gini = 0.0\nsamples = 1\nvalue = [0, 1]"] ;
422 -> 423 ;
424 [label="gini = 0.0\nsamples = 1\nvalue = [1, 0]"] ;
422 -> 424 ;
425 [label="gini = 0.0\nsamples = 1\nvalue = [0, 1]"] ;
419 -> 425 ;
426 [label="gini = 0.0\nsamples = 1\nvalue = [0, 1]"] ;
418 -> 426 ;
427 [label="gini = 0.0\nsamples = 1\nvalue = [0, 1]"] ;
417 -> 427 ;
428 [label="gini = 0.0\nsamples = 1\nvalue = [0, 1]"] ;
416 -> 428 ;
429 [label="gini = 0.0\nsamples = 1\nvalue = [0, 1]"] ;
415 -> 429 ;
430 [label="gini = 0.0\nsamples = 1\nvalue = [0, 1]"] ;
414 -> 430 ;
431 [label="gini = 0.0\nsamples = 1\nvalue = [0, 1]"] ;
413 -> 431 ;
432 [label="gini = 0.0\nsamples = 1\nvalue = [0, 1]"] ;
412 -> 432 ;
433 [label="gini = 0.0\nsamples = 1\nvalue = [0, 1]"] ;
411 -> 433 ;
434 [label="gini = 0.0\nsamples = 1\nvalue = [0, 1]"] ;
410 -> 434 ;
435 [label="gini = 0.0\nsamples = 1\nvalue = [0, 1]"] ;
409 -> 435 ;
436 [label="gini = 0.0\nsamples = 1\nvalue = [0, 1]"] ;
408 -> 436 ;
437 [label="gini = 0.0\nsamples = 1\nvalue = [0, 1]"] ;
407 -> 437 ;
438 [label="gini = 0.0\nsamples = 1\nvalue = [0, 1]"] ;
406 -> 438 ;
439 [label="gini = 0.0\nsamples = 1\nvalue = [0, 1]"] ;
405 -> 439 ;
440 [label="gini = 0.0\nsamples = 1\nvalue = [0, 1]"] ;
404 -> 440 ;
441 [label="gini = 0.0\nsamples = 1\nvalue = [0, 1]"] ;
403 -> 441 ;
442 [label="gini = 0.0\nsamples = 1\nvalue = [0, 1]"] ;
402 -> 442 ;
443 [label="gini = 0.0\nsamples = 1\nvalue = [0, 1]"] ;
401 -> 443 ;
444 [label="gini = 0.0\nsamples = 1\nvalue = [0, 1]"] ;
400 -> 444 ;
445 [label="gini = 0.0\nsamples = 1\nvalue = [0, 1]"] ;
399 -> 445 ;
446 [label="gini = 0.0\nsamples = 1\nvalue = [0, 1]"] ;
398 -> 446 ;
447 [label="gini = 0.0\nsamples = 1\nvalue = [0, 1]"] ;
397 -> 447 ;
448 [label="X[1] <= 0.5\ngini = 0.444\nsamples = 3\nvalue = [1, 2]"] ;
396 -> 448 ;
449 [label="gini = 0.0\nsamples = 1\nvalue = [0, 1]"] ;
448 -> 449 ;
450 [label="X[723] <= 0.5\ngini = 0.5\nsamples = 2\nvalue = [1, 1]"] ;
448 -> 450 ;
451 [label="gini = 0.0\nsamples = 1\nvalue = [0, 1]"] ;
450 -> 451 ;
452 [label="gini = 0.0\nsamples = 1\nvalue = [1, 0]"] ;
450 -> 452 ;
453 [label="gini = 0.0\nsamples = 1\nvalue = [0, 1]"] ;
395 -> 453 ;
454 [label="gini = 0.0\nsamples = 1\nvalue = [0, 1]"] ;
394 -> 454 ;
455 [label="gini = 0.0\nsamples = 1\nvalue = [0, 1]"] ;
393 -> 455 ;
456 [label="gini = 0.0\nsamples = 1\nvalue = [0, 1]"] ;
392 -> 456 ;
457 [label="gini = 0.0\nsamples = 1\nvalue = [0, 1]"] ;
391 -> 457 ;
458 [label="gini = 0.0\nsamples = 1\nvalue = [0, 1]"] ;
390 -> 458 ;
459 [label="gini = 0.0\nsamples = 1\nvalue = [0, 1]"] ;
389 -> 459 ;
460 [label="gini = 0.0\nsamples = 1\nvalue = [0, 1]"] ;
388 -> 460 ;
461 [label="gini = 0.0\nsamples = 1\nvalue = [0, 1]"] ;
387 -> 461 ;
462 [label="gini = 0.0\nsamples = 1\nvalue = [0, 1]"] ;
386 -> 462 ;
463 [label="gini = 0.0\nsamples = 1\nvalue = [0, 1]"] ;
385 -> 463 ;
464 [label="gini = 0.0\nsamples = 1\nvalue = [0, 1]"] ;
384 -> 464 ;
465 [label="gini = 0.0\nsamples = 2\nvalue = [0, 2]"] ;
383 -> 465 ;
466 [label="gini = 0.0\nsamples = 2\nvalue = [0, 2]"] ;
382 -> 466 ;
467 [label="gini = 0.0\nsamples = 2\nvalue = [0, 2]"] ;
381 -> 467 ;
468 [label="gini = 0.0\nsamples = 2\nvalue = [0, 2]"] ;
380 -> 468 ;
469 [label="gini = 0.0\nsamples = 2\nvalue = [0, 2]"] ;
379 -> 469 ;
470 [label="gini = 0.0\nsamples = 2\nvalue = [0, 2]"] ;
52 -> 470 ;
471 [label="gini = 0.0\nsamples = 2\nvalue = [0, 2]"] ;
51 -> 471 ;
472 [label="gini = 0.0\nsamples = 2\nvalue = [0, 2]"] ;
50 -> 472 ;
473 [label="gini = 0.0\nsamples = 2\nvalue = [0, 2]"] ;
49 -> 473 ;
474 [label="X[616] <= 0.5\ngini = 0.408\nsamples = 7\nvalue = [2, 5]"] ;
48 -> 474 ;
475 [label="X[564] <= 0.5\ngini = 0.278\nsamples = 6\nvalue = [1, 5]"] ;
474 -> 475 ;
476 [label="gini = 0.0\nsamples = 5\nvalue = [0, 5]"] ;
475 -> 476 ;
477 [label="gini = 0.0\nsamples = 1\nvalue = [1, 0]"] ;
475 -> 477 ;
478 [label="gini = 0.0\nsamples = 1\nvalue = [1, 0]"] ;
474 -> 478 ;
479 [label="X[278] <= 0.5\ngini = 0.495\nsamples = 20\nvalue = [9, 11]"] ;
47 -> 479 ;
480 [label="X[2821] <= 0.5\ngini = 0.475\nsamples = 18\nvalue = [7, 11]"] ;
479 -> 480 ;
481 [label="X[2387] <= 0.5\ngini = 0.457\nsamples = 17\nvalue = [6, 11]"] ;
480 -> 481 ;
482 [label="X[8] <= 0.5\ngini = 0.43\nsamples = 16\nvalue = [5, 11]"] ;
481 -> 482 ;
483 [label="X[1717] <= 0.5\ngini = 0.391\nsamples = 15\nvalue = [4, 11]"] ;
482 -> 483 ;
484 [label="X[237] <= 0.5\ngini = 0.337\nsamples = 14\nvalue = [3, 11]"] ;
483 -> 484 ;
485 [label="X[70] <= 0.5\ngini = 0.26\nsamples = 13\nvalue = [2, 11]"] ;
484 -> 485 ;
486 [label="X[2429] <= 0.5\ngini = 0.153\nsamples = 12\nvalue = [1, 11]"] ;
485 -> 486 ;
487 [label="gini = 0.0\nsamples = 11\nvalue = [0, 11]"] ;
486 -> 487 ;
488 [label="gini = 0.0\nsamples = 1\nvalue = [1, 0]"] ;
486 -> 488 ;
489 [label="gini = 0.0\nsamples = 1\nvalue = [1, 0]"] ;
485 -> 489 ;
490 [label="gini = 0.0\nsamples = 1\nvalue = [1, 0]"] ;
484 -> 490 ;
491 [label="gini = 0.0\nsamples = 1\nvalue = [1, 0]"] ;
483 -> 491 ;
492 [label="gini = 0.0\nsamples = 1\nvalue = [1, 0]"] ;
482 -> 492 ;
493 [label="gini = 0.0\nsamples = 1\nvalue = [1, 0]"] ;
481 -> 493 ;
494 [label="gini = 0.0\nsamples = 1\nvalue = [1, 0]"] ;
480 -> 494 ;
495 [label="gini = 0.0\nsamples = 2\nvalue = [2, 0]"] ;
479 -> 495 ;
496 [label="X[194] <= 0.5\ngini = 0.32\nsamples = 5\nvalue = [1, 4]"] ;
46 -> 496 ;
497 [label="gini = 0.0\nsamples = 4\nvalue = [0, 4]"] ;
496 -> 497 ;
498 [label="gini = 0.0\nsamples = 1\nvalue = [1, 0]"] ;
496 -> 498 ;
499 [label="X[408] <= 0.5\ngini = 0.463\nsamples = 11\nvalue = [4, 7]"] ;
45 -> 499 ;
500 [label="X[1881] <= 0.5\ngini = 0.42\nsamples = 10\nvalue = [3, 7]"] ;
499 -> 500 ;
501 [label="X[1121] <= 0.5\ngini = 0.346\nsamples = 9\nvalue = [2, 7]"] ;
500 -> 501 ;
502 [label="X[1531] <= 0.5\ngini = 0.219\nsamples = 8\nvalue = [1, 7]"] ;
501 -> 502 ;
503 [label="gini = 0.0\nsamples = 7\nvalue = [0, 7]"] ;
502 -> 503 ;
504 [label="gini = 0.0\nsamples = 1\nvalue = [1, 0]"] ;
502 -> 504 ;
505 [label="gini = 0.0\nsamples = 1\nvalue = [1, 0]"] ;
501 -> 505 ;
506 [label="gini = 0.0\nsamples = 1\nvalue = [1, 0]"] ;
500 -> 506 ;
507 [label="gini = 0.0\nsamples = 1\nvalue = [1, 0]"] ;
499 -> 507 ;
508 [label="X[287] <= 0.5\ngini = 0.463\nsamples = 11\nvalue = [4, 7]"] ;
44 -> 508 ;
509 [label="X[1] <= 0.5\ngini = 0.42\nsamples = 10\nvalue = [3, 7]"] ;
508 -> 509 ;
510 [label="X[3518] <= 0.5\ngini = 0.444\nsamples = 3\nvalue = [2, 1]"] ;
509 -> 510 ;
511 [label="gini = 0.0\nsamples = 2\nvalue = [2, 0]"] ;
510 -> 511 ;
512 [label="gini = 0.0\nsamples = 1\nvalue = [0, 1]"] ;
510 -> 512 ;
513 [label="X[686] <= 0.5\ngini = 0.245\nsamples = 7\nvalue = [1, 6]"] ;
509 -> 513 ;
514 [label="gini = 0.0\nsamples = 6\nvalue = [0, 6]"] ;
513 -> 514 ;
515 [label="gini = 0.0\nsamples = 1\nvalue = [1, 0]"] ;
513 -> 515 ;
516 [label="gini = 0.0\nsamples = 1\nvalue = [1, 0]"] ;
508 -> 516 ;
517 [label="gini = 0.0\nsamples = 3\nvalue = [0, 3]"] ;
43 -> 517 ;
518 [label="gini = 0.0\nsamples = 3\nvalue = [0, 3]"] ;
42 -> 518 ;
519 [label="X[4030] <= 0.5\ngini = 0.153\nsamples = 48\nvalue = [44, 4]"] ;
41 -> 519 ;
520 [label="X[2610] <= 0.5\ngini = 0.12\nsamples = 47\nvalue = [44, 3]"] ;
519 -> 520 ;
521 [label="X[3161] <= 0.5\ngini = 0.083\nsamples = 46\nvalue = [44, 2]"] ;
520 -> 521 ;
522 [label="X[3084] <= 0.5\ngini = 0.043\nsamples = 45\nvalue = [44, 1]"] ;
521 -> 522 ;
523 [label="gini = 0.0\nsamples = 44\nvalue = [44, 0]"] ;
522 -> 523 ;
524 [label="gini = 0.0\nsamples = 1\nvalue = [0, 1]"] ;
522 -> 524 ;
525 [label="gini = 0.0\nsamples = 1\nvalue = [0, 1]"] ;
521 -> 525 ;
526 [label="gini = 0.0\nsamples = 1\nvalue = [0, 1]"] ;
520 -> 526 ;
527 [label="gini = 0.0\nsamples = 1\nvalue = [0, 1]"] ;
519 -> 527 ;
528 [label="gini = 0.0\nsamples = 3\nvalue = [0, 3]"] ;
40 -> 528 ;
529 [label="gini = 0.0\nsamples = 3\nvalue = [0, 3]"] ;
39 -> 529 ;
530 [label="gini = 0.0\nsamples = 3\nvalue = [0, 3]"] ;
38 -> 530 ;
531 [label="gini = 0.0\nsamples = 3\nvalue = [0, 3]"] ;
37 -> 531 ;
532 [label="gini = 0.0\nsamples = 3\nvalue = [0, 3]"] ;
36 -> 532 ;
533 [label="gini = 0.0\nsamples = 3\nvalue = [0, 3]"] ;
35 -> 533 ;
534 [label="gini = 0.0\nsamples = 3\nvalue = [0, 3]"] ;
34 -> 534 ;
535 [label="X[2370] <= 0.5\ngini = 0.375\nsamples = 8\nvalue = [2, 6]"] ;
33 -> 535 ;
536 [label="X[152] <= 0.5\ngini = 0.245\nsamples = 7\nvalue = [1, 6]"] ;
535 -> 536 ;
537 [label="gini = 0.0\nsamples = 6\nvalue = [0, 6]"] ;
536 -> 537 ;
538 [label="gini = 0.0\nsamples = 1\nvalue = [1, 0]"] ;
536 -> 538 ;
539 [label="gini = 0.0\nsamples = 1\nvalue = [1, 0]"] ;
535 -> 539 ;
540 [label="X[2071] <= 0.5\ngini = 0.194\nsamples = 55\nvalue = [49, 6]"] ;
32 -> 540 ;
541 [label="X[2876] <= 0.5\ngini = 0.168\nsamples = 54\nvalue = [49, 5]"] ;
540 -> 541 ;
542 [label="X[1149] <= 0.5\ngini = 0.14\nsamples = 53\nvalue = [49, 4]"] ;
541 -> 542 ;
543 [label="X[82] <= 0.5\ngini = 0.109\nsamples = 52\nvalue = [49, 3]"] ;
542 -> 543 ;
544 [label="X[3476] <= 0.5\ngini = 0.075\nsamples = 51\nvalue = [49, 2]"] ;
543 -> 544 ;
545 [label="X[1] <= 0.5\ngini = 0.039\nsamples = 50\nvalue = [49, 1]"] ;
544 -> 545 ;
546 [label="X[2376] <= 0.5\ngini = 0.049\nsamples = 40\nvalue = [39, 1]"] ;
545 -> 546 ;
547 [label="gini = 0.0\nsamples = 39\nvalue = [39, 0]"] ;
546 -> 547 ;
548 [label="gini = 0.0\nsamples = 1\nvalue = [0, 1]"] ;
546 -> 548 ;
549 [label="gini = 0.0\nsamples = 10\nvalue = [10, 0]"] ;
545 -> 549 ;
550 [label="gini = 0.0\nsamples = 1\nvalue = [0, 1]"] ;
544 -> 550 ;
551 [label="gini = 0.0\nsamples = 1\nvalue = [0, 1]"] ;
543 -> 551 ;
552 [label="gini = 0.0\nsamples = 1\nvalue = [0, 1]"] ;
542 -> 552 ;
553 [label="gini = 0.0\nsamples = 1\nvalue = [0, 1]"] ;
541 -> 553 ;
554 [label="gini = 0.0\nsamples = 1\nvalue = [0, 1]"] ;
540 -> 554 ;
555 [label="gini = 0.0\nsamples = 4\nvalue = [0, 4]"] ;
31 -> 555 ;
556 [label="X[1250] <= 0.5\ngini = 0.42\nsamples = 10\nvalue = [3, 7]"] ;
30 -> 556 ;
557 [label="X[165] <= 0.5\ngini = 0.346\nsamples = 9\nvalue = [2, 7]"] ;
556 -> 557 ;
558 [label="X[2392] <= 0.5\ngini = 0.219\nsamples = 8\nvalue = [1, 7]"] ;
557 -> 558 ;
559 [label="gini = 0.0\nsamples = 7\nvalue = [0, 7]"] ;
558 -> 559 ;
560 [label="gini = 0.0\nsamples = 1\nvalue = [1, 0]"] ;
558 -> 560 ;
561 [label="gini = 0.0\nsamples = 1\nvalue = [1, 0]"] ;
557 -> 561 ;
562 [label="gini = 0.0\nsamples = 1\nvalue = [1, 0]"] ;
556 -> 562 ;
563 [label="X[11] <= 0.5\ngini = 0.278\nsamples = 6\nvalue = [1, 5]"] ;
29 -> 563 ;
564 [label="gini = 0.0\nsamples = 5\nvalue = [0, 5]"] ;
563 -> 564 ;
565 [label="gini = 0.0\nsamples = 1\nvalue = [1, 0]"] ;
563 -> 565 ;
566 [label="gini = 0.0\nsamples = 4\nvalue = [0, 4]"] ;
28 -> 566 ;
567 [label="gini = 0.0\nsamples = 4\nvalue = [0, 4]"] ;
27 -> 567 ;
568 [label="gini = 0.0\nsamples = 4\nvalue = [0, 4]"] ;
26 -> 568 ;
569 [label="X[10] <= 0.5\ngini = 0.426\nsamples = 13\nvalue = [4, 9]"] ;
25 -> 569 ;
570 [label="X[1192] <= 0.5\ngini = 0.375\nsamples = 12\nvalue = [3, 9]"] ;
569 -> 570 ;
571 [label="X[1719] <= 0.5\ngini = 0.298\nsamples = 11\nvalue = [2, 9]"] ;
570 -> 571 ;
572 [label="X[862] <= 0.5\ngini = 0.18\nsamples = 10\nvalue = [1, 9]"] ;
571 -> 572 ;
573 [label="gini = 0.0\nsamples = 9\nvalue = [0, 9]"] ;
572 -> 573 ;
574 [label="gini = 0.0\nsamples = 1\nvalue = [1, 0]"] ;
572 -> 574 ;
575 [label="gini = 0.0\nsamples = 1\nvalue = [1, 0]"] ;
571 -> 575 ;
576 [label="gini = 0.0\nsamples = 1\nvalue = [1, 0]"] ;
570 -> 576 ;
577 [label="gini = 0.0\nsamples = 1\nvalue = [1, 0]"] ;
569 -> 577 ;
578 [label="X[1350] <= 0.5\ngini = 0.346\nsamples = 9\nvalue = [2, 7]"] ;
24 -> 578 ;
579 [label="X[694] <= 0.5\ngini = 0.219\nsamples = 8\nvalue = [1, 7]"] ;
578 -> 579 ;
580 [label="gini = 0.0\nsamples = 7\nvalue = [0, 7]"] ;
579 -> 580 ;
581 [label="gini = 0.0\nsamples = 1\nvalue = [1, 0]"] ;
579 -> 581 ;
582 [label="gini = 0.0\nsamples = 1\nvalue = [1, 0]"] ;
578 -> 582 ;
583 [label="X[963] <= 0.5\ngini = 0.444\nsamples = 15\nvalue = [5, 10]"] ;
23 -> 583 ;
584 [label="X[687] <= 0.5\ngini = 0.408\nsamples = 14\nvalue = [4, 10]"] ;
583 -> 584 ;
585 [label="X[31] <= 0.5\ngini = 0.355\nsamples = 13\nvalue = [3, 10]"] ;
584 -> 585 ;
586 [label="X[117] <= 0.5\ngini = 0.278\nsamples = 12\nvalue = [2, 10]"] ;
585 -> 586 ;
587 [label="X[812] <= 0.5\ngini = 0.165\nsamples = 11\nvalue = [1, 10]"] ;
586 -> 587 ;
588 [label="gini = 0.0\nsamples = 10\nvalue = [0, 10]"] ;
587 -> 588 ;
589 [label="gini = 0.0\nsamples = 1\nvalue = [1, 0]"] ;
587 -> 589 ;
590 [label="gini = 0.0\nsamples = 1\nvalue = [1, 0]"] ;
586 -> 590 ;
591 [label="gini = 0.0\nsamples = 1\nvalue = [1, 0]"] ;
585 -> 591 ;
592 [label="gini = 0.0\nsamples = 1\nvalue = [1, 0]"] ;
584 -> 592 ;
593 [label="gini = 0.0\nsamples = 1\nvalue = [1, 0]"] ;
583 -> 593 ;
594 [label="X[1] <= 0.5\ngini = 0.5\nsamples = 49\nvalue = [24, 25]"] ;
22 -> 594 ;
595 [label="X[278] <= 0.5\ngini = 0.469\nsamples = 24\nvalue = [15, 9]"] ;
594 -> 595 ;
596 [label="X[886] <= 0.5\ngini = 0.495\nsamples = 20\nvalue = [11, 9]"] ;
595 -> 596 ;
597 [label="X[165] <= 0.5\ngini = 0.488\nsamples = 19\nvalue = [11, 8]"] ;
596 -> 597 ;
598 [label="X[226] <= 0.5\ngini = 0.475\nsamples = 18\nvalue = [11, 7]"] ;
597 -> 598 ;
599 [label="X[4271] <= 0.5\ngini = 0.457\nsamples = 17\nvalue = [11, 6]"] ;
598 -> 599 ;
600 [label="X[3438] <= 0.5\ngini = 0.43\nsamples = 16\nvalue = [11, 5]"] ;
599 -> 600 ;
601 [label="X[2125] <= 0.5\ngini = 0.391\nsamples = 15\nvalue = [11, 4]"] ;
600 -> 601 ;
602 [label="X[4149] <= 0.5\ngini = 0.337\nsamples = 14\nvalue = [11, 3]"] ;
601 -> 602 ;
603 [label="X[209] <= 0.5\ngini = 0.26\nsamples = 13\nvalue = [11, 2]"] ;
602 -> 603 ;
604 [label="X[4062] <= 0.5\ngini = 0.153\nsamples = 12\nvalue = [11, 1]"] ;
603 -> 604 ;
605 [label="gini = 0.0\nsamples = 11\nvalue = [11, 0]"] ;
604 -> 605 ;
606 [label="gini = 0.0\nsamples = 1\nvalue = [0, 1]"] ;
604 -> 606 ;
607 [label="gini = 0.0\nsamples = 1\nvalue = [0, 1]"] ;
603 -> 607 ;
608 [label="gini = 0.0\nsamples = 1\nvalue = [0, 1]"] ;
602 -> 608 ;
609 [label="gini = 0.0\nsamples = 1\nvalue = [0, 1]"] ;
601 -> 609 ;
610 [label="gini = 0.0\nsamples = 1\nvalue = [0, 1]"] ;
600 -> 610 ;
611 [label="gini = 0.0\nsamples = 1\nvalue = [0, 1]"] ;
599 -> 611 ;
612 [label="gini = 0.0\nsamples = 1\nvalue = [0, 1]"] ;
598 -> 612 ;
613 [label="gini = 0.0\nsamples = 1\nvalue = [0, 1]"] ;
597 -> 613 ;
614 [label="gini = 0.0\nsamples = 1\nvalue = [0, 1]"] ;
596 -> 614 ;
615 [label="gini = 0.0\nsamples = 4\nvalue = [4, 0]"] ;
595 -> 615 ;
616 [label="X[18] <= 0.5\ngini = 0.461\nsamples = 25\nvalue = [9, 16]"] ;
594 -> 616 ;
617 [label="X[544] <= 0.5\ngini = 0.444\nsamples = 24\nvalue = [8, 16]"] ;
616 -> 617 ;
618 [label="X[156] <= 0.5\ngini = 0.423\nsamples = 23\nvalue = [7, 16]"] ;
617 -> 618 ;
619 [label="X[261] <= 0.5\ngini = 0.397\nsamples = 22\nvalue = [6, 16]"] ;
618 -> 619 ;
620 [label="X[277] <= 0.5\ngini = 0.363\nsamples = 21\nvalue = [5, 16]"] ;
619 -> 620 ;
621 [label="X[278] <= 0.5\ngini = 0.32\nsamples = 20\nvalue = [4, 16]"] ;
620 -> 621 ;
622 [label="X[689] <= 0.5\ngini = 0.266\nsamples = 19\nvalue = [3, 16]"] ;
621 -> 622 ;
623 [label="X[666] <= 0.5\ngini = 0.198\nsamples = 18\nvalue = [2, 16]"] ;
622 -> 623 ;
624 [label="X[460] <= 0.5\ngini = 0.117\nsamples = 16\nvalue = [1, 15]"] ;
623 -> 624 ;
625 [label="X[39] <= 0.5\ngini = 0.133\nsamples = 14\nvalue = [1, 13]"] ;
624 -> 625 ;
626 [label="X[72] <= 0.5\ngini = 0.142\nsamples = 13\nvalue = [1, 12]"] ;
625 -> 626 ;
627 [label="X[215] <= 0.5\ngini = 0.198\nsamples = 9\nvalue = [1, 8]"] ;
626 -> 627 ;
628 [label="X[1809] <= 0.5\ngini = 0.219\nsamples = 8\nvalue = [1, 7]"] ;
627 -> 628 ;
629 [label="X[125] <= 0.5\ngini = 0.245\nsamples = 7\nvalue = [1, 6]"] ;
628 -> 629 ;
630 [label="X[3613] <= 0.5\ngini = 0.278\nsamples = 6\nvalue = [1, 5]"] ;
629 -> 630 ;
631 [label="X[705] <= 0.5\ngini = 0.32\nsamples = 5\nvalue = [1, 4]"] ;
630 -> 631 ;
632 [label="X[238] <= 0.5\ngini = 0.375\nsamples = 4\nvalue = [1, 3]"] ;
631 -> 632 ;
633 [label="X[3393] <= 0.5\ngini = 0.444\nsamples = 3\nvalue = [1, 2]"] ;
632 -> 633 ;
634 [label="gini = 0.5\nsamples = 2\nvalue = [1, 1]"] ;
633 -> 634 ;
635 [label="gini = 0.0\nsamples = 1\nvalue = [0, 1]"] ;
633 -> 635 ;
636 [label="gini = 0.0\nsamples = 1\nvalue = [0, 1]"] ;
632 -> 636 ;
637 [label="gini = 0.0\nsamples = 1\nvalue = [0, 1]"] ;
631 -> 637 ;
638 [label="gini = 0.0\nsamples = 1\nvalue = [0, 1]"] ;
630 -> 638 ;
639 [label="gini = 0.0\nsamples = 1\nvalue = [0, 1]"] ;
629 -> 639 ;
640 [label="gini = 0.0\nsamples = 1\nvalue = [0, 1]"] ;
628 -> 640 ;
641 [label="gini = 0.0\nsamples = 1\nvalue = [0, 1]"] ;
627 -> 641 ;
642 [label="gini = 0.0\nsamples = 4\nvalue = [0, 4]"] ;
626 -> 642 ;
643 [label="gini = 0.0\nsamples = 1\nvalue = [0, 1]"] ;
625 -> 643 ;
644 [label="gini = 0.0\nsamples = 2\nvalue = [0, 2]"] ;
624 -> 644 ;
645 [label="X[935] <= 0.5\ngini = 0.5\nsamples = 2\nvalue = [1, 1]"] ;
623 -> 645 ;
646 [label="gini = 0.0\nsamples = 1\nvalue = [1, 0]"] ;
645 -> 646 ;
647 [label="gini = 0.0\nsamples = 1\nvalue = [0, 1]"] ;
645 -> 647 ;
648 [label="gini = 0.0\nsamples = 1\nvalue = [1, 0]"] ;
622 -> 648 ;
649 [label="gini = 0.0\nsamples = 1\nvalue = [1, 0]"] ;
621 -> 649 ;
650 [label="gini = 0.0\nsamples = 1\nvalue = [1, 0]"] ;
620 -> 650 ;
651 [label="gini = 0.0\nsamples = 1\nvalue = [1, 0]"] ;
619 -> 651 ;
652 [label="gini = 0.0\nsamples = 1\nvalue = [1, 0]"] ;
618 -> 652 ;
653 [label="gini = 0.0\nsamples = 1\nvalue = [1, 0]"] ;
617 -> 653 ;
654 [label="gini = 0.0\nsamples = 1\nvalue = [1, 0]"] ;
616 -> 654 ;
655 [label="X[194] <= 0.5\ngini = 0.245\nsamples = 7\nvalue = [1, 6]"] ;
21 -> 655 ;
656 [label="gini = 0.0\nsamples = 6\nvalue = [0, 6]"] ;
655 -> 656 ;
657 [label="gini = 0.0\nsamples = 1\nvalue = [1, 0]"] ;
655 -> 657 ;
658 [label="X[453] <= 0.5\ngini = 0.245\nsamples = 7\nvalue = [1, 6]"] ;
20 -> 658 ;
659 [label="gini = 0.0\nsamples = 6\nvalue = [0, 6]"] ;
658 -> 659 ;
660 [label="gini = 0.0\nsamples = 1\nvalue = [1, 0]"] ;
658 -> 660 ;
661 [label="gini = 0.0\nsamples = 5\nvalue = [0, 5]"] ;
19 -> 661 ;
662 [label="X[1002] <= 0.5\ngini = 0.391\nsamples = 15\nvalue = [4, 11]"] ;
18 -> 662 ;
663 [label="X[2522] <= 0.5\ngini = 0.337\nsamples = 14\nvalue = [3, 11]"] ;
662 -> 663 ;
664 [label="X[307] <= 0.5\ngini = 0.26\nsamples = 13\nvalue = [2, 11]"] ;
663 -> 664 ;
665 [label="X[714] <= 0.5\ngini = 0.153\nsamples = 12\nvalue = [1, 11]"] ;
664 -> 665 ;
666 [label="gini = 0.0\nsamples = 11\nvalue = [0, 11]"] ;
665 -> 666 ;
667 [label="gini = 0.0\nsamples = 1\nvalue = [1, 0]"] ;
665 -> 667 ;
668 [label="gini = 0.0\nsamples = 1\nvalue = [1, 0]"] ;
664 -> 668 ;
669 [label="gini = 0.0\nsamples = 1\nvalue = [1, 0]"] ;
663 -> 669 ;
670 [label="gini = 0.0\nsamples = 1\nvalue = [1, 0]"] ;
662 -> 670 ;
671 [label="X[3177] <= 0.5\ngini = 0.067\nsamples = 29\nvalue = [28, 1]"] ;
17 -> 671 ;
672 [label="gini = 0.0\nsamples = 28\nvalue = [28, 0]"] ;
671 -> 672 ;
673 [label="gini = 0.0\nsamples = 1\nvalue = [0, 1]"] ;
671 -> 673 ;
674 [label="gini = 0.0\nsamples = 5\nvalue = [0, 5]"] ;
16 -> 674 ;
675 [label="X[317] <= 0.5\ngini = 0.219\nsamples = 8\nvalue = [1, 7]"] ;
15 -> 675 ;
676 [label="gini = 0.0\nsamples = 7\nvalue = [0, 7]"] ;
675 -> 676 ;
677 [label="gini = 0.0\nsamples = 1\nvalue = [1, 0]"] ;
675 -> 677 ;
678 [label="X[52] <= 0.5\ngini = 0.5\nsamples = 95\nvalue = [48, 47]"] ;
14 -> 678 ;
679 [label="X[687] <= 0.5\ngini = 0.498\nsamples = 90\nvalue = [48, 42]"] ;
678 -> 679 ;
680 [label="X[72] <= 0.5\ngini = 0.493\nsamples = 86\nvalue = [48, 38]"] ;
679 -> 680 ;
681 [label="X[65] <= 0.5\ngini = 0.48\nsamples = 75\nvalue = [45, 30]"] ;
680 -> 681 ;
682 [label="X[357] <= 0.5\ngini = 0.473\nsamples = 73\nvalue = [45, 28]"] ;
681 -> 682 ;
683 [label="X[968] <= 0.5\ngini = 0.464\nsamples = 71\nvalue = [45, 26]"] ;
682 -> 683 ;
684 [label="X[383] <= 0.5\ngini = 0.454\nsamples = 69\nvalue = [45, 24]"] ;
683 -> 684 ;
685 [label="X[117] <= 0.5\ngini = 0.441\nsamples = 67\nvalue = [45, 22]"] ;
684 -> 685 ;
686 [label="X[3315] <= 0.5\ngini = 0.416\nsamples = 61\nvalue = [43, 18]"] ;
685 -> 686 ;
687 [label="X[461] <= 0.5\ngini = 0.406\nsamples = 60\nvalue = [43, 17]"] ;
686 -> 687 ;
688 [label="X[1120] <= 0.5\ngini = 0.395\nsamples = 59\nvalue = [43, 16]"] ;
687 -> 688 ;
689 [label="X[1093] <= 0.5\ngini = 0.383\nsamples = 58\nvalue = [43, 15]"] ;
688 -> 689 ;
690 [label="X[1044] <= 0.5\ngini = 0.371\nsamples = 57\nvalue = [43, 14]"] ;
689 -> 690 ;
691 [label="X[996] <= 0.5\ngini = 0.357\nsamples = 56\nvalue = [43, 13]"] ;
690 -> 691 ;
692 [label="X[435] <= 0.5\ngini = 0.341\nsamples = 55\nvalue = [43, 12]"] ;
691 -> 692 ;
693 [label="X[1525] <= 0.5\ngini = 0.324\nsamples = 54\nvalue = [43, 11]"] ;
692 -> 693 ;
694 [label="X[1235] <= 0.5\ngini = 0.306\nsamples = 53\nvalue = [43, 10]"] ;
693 -> 694 ;
695 [label="X[833] <= 0.5\ngini = 0.286\nsamples = 52\nvalue = [43, 9]"] ;
694 -> 695 ;
696 [label="X[227] <= 0.5\ngini = 0.265\nsamples = 51\nvalue = [43, 8]"] ;
695 -> 696 ;
697 [label="X[1114] <= 0.5\ngini = 0.241\nsamples = 50\nvalue = [43, 7]"] ;
696 -> 697 ;
698 [label="X[2171] <= 0.5\ngini = 0.215\nsamples = 49\nvalue = [43, 6]"] ;
697 -> 698 ;
699 [label="X[253] <= 0.5\ngini = 0.187\nsamples = 48\nvalue = [43, 5]"] ;
698 -> 699 ;
700 [label="X[3441] <= 0.5\ngini = 0.156\nsamples = 47\nvalue = [43, 4]"] ;
699 -> 700 ;
701 [label="X[4476] <= 0.5\ngini = 0.122\nsamples = 46\nvalue = [43, 3]"] ;
700 -> 701 ;
702 [label="X[1] <= 0.5\ngini = 0.085\nsamples = 45\nvalue = [43, 2]"] ;
701 -> 702 ;
703 [label="X[2974] <= 0.5\ngini = 0.142\nsamples = 26\nvalue = [24, 2]"] ;
702 -> 703 ;
704 [label="X[74] <= 0.5\ngini = 0.077\nsamples = 25\nvalue = [24, 1]"] ;
703 -> 704 ;
705 [label="gini = 0.0\nsamples = 24\nvalue = [24, 0]"] ;
704 -> 705 ;
706 [label="gini = 0.0\nsamples = 1\nvalue = [0, 1]"] ;
704 -> 706 ;
707 [label="gini = 0.0\nsamples = 1\nvalue = [0, 1]"] ;
703 -> 707 ;
708 [label="gini = 0.0\nsamples = 19\nvalue = [19, 0]"] ;
702 -> 708 ;
709 [label="gini = 0.0\nsamples = 1\nvalue = [0, 1]"] ;
701 -> 709 ;
710 [label="gini = 0.0\nsamples = 1\nvalue = [0, 1]"] ;
700 -> 710 ;
711 [label="gini = 0.0\nsamples = 1\nvalue = [0, 1]"] ;
699 -> 711 ;
712 [label="gini = 0.0\nsamples = 1\nvalue = [0, 1]"] ;
698 -> 712 ;
713 [label="gini = 0.0\nsamples = 1\nvalue = [0, 1]"] ;
697 -> 713 ;
714 [label="gini = 0.0\nsamples = 1\nvalue = [0, 1]"] ;
696 -> 714 ;
715 [label="gini = 0.0\nsamples = 1\nvalue = [0, 1]"] ;
695 -> 715 ;
716 [label="gini = 0.0\nsamples = 1\nvalue = [0, 1]"] ;
694 -> 716 ;
717 [label="gini = 0.0\nsamples = 1\nvalue = [0, 1]"] ;
693 -> 717 ;
718 [label="gini = 0.0\nsamples = 1\nvalue = [0, 1]"] ;
692 -> 718 ;
719 [label="gini = 0.0\nsamples = 1\nvalue = [0, 1]"] ;
691 -> 719 ;
720 [label="gini = 0.0\nsamples = 1\nvalue = [0, 1]"] ;
690 -> 720 ;
721 [label="gini = 0.0\nsamples = 1\nvalue = [0, 1]"] ;
689 -> 721 ;
722 [label="gini = 0.0\nsamples = 1\nvalue = [0, 1]"] ;
688 -> 722 ;
723 [label="gini = 0.0\nsamples = 1\nvalue = [0, 1]"] ;
687 -> 723 ;
724 [label="gini = 0.0\nsamples = 1\nvalue = [0, 1]"] ;
686 -> 724 ;
725 [label="X[295] <= 0.5\ngini = 0.444\nsamples = 6\nvalue = [2, 4]"] ;
685 -> 725 ;
726 [label="X[411] <= 0.5\ngini = 0.32\nsamples = 5\nvalue = [1, 4]"] ;
725 -> 726 ;
727 [label="gini = 0.0\nsamples = 4\nvalue = [0, 4]"] ;
726 -> 727 ;
728 [label="gini = 0.0\nsamples = 1\nvalue = [1, 0]"] ;
726 -> 728 ;
729 [label="gini = 0.0\nsamples = 1\nvalue = [1, 0]"] ;
725 -> 729 ;
730 [label="gini = 0.0\nsamples = 2\nvalue = [0, 2]"] ;
684 -> 730 ;
731 [label="gini = 0.0\nsamples = 2\nvalue = [0, 2]"] ;
683 -> 731 ;
732 [label="gini = 0.0\nsamples = 2\nvalue = [0, 2]"] ;
682 -> 732 ;
733 [label="gini = 0.0\nsamples = 2\nvalue = [0, 2]"] ;
681 -> 733 ;
734 [label="X[1260] <= 0.5\ngini = 0.397\nsamples = 11\nvalue = [3, 8]"] ;
680 -> 734 ;
735 [label="X[1235] <= 0.5\ngini = 0.32\nsamples = 10\nvalue = [2, 8]"] ;
734 -> 735 ;
736 [label="X[312] <= 0.5\ngini = 0.198\nsamples = 9\nvalue = [1, 8]"] ;
735 -> 736 ;
737 [label="gini = 0.0\nsamples = 8\nvalue = [0, 8]"] ;
736 -> 737 ;
738 [label="gini = 0.0\nsamples = 1\nvalue = [1, 0]"] ;
736 -> 738 ;
739 [label="gini = 0.0\nsamples = 1\nvalue = [1, 0]"] ;
735 -> 739 ;
740 [label="gini = 0.0\nsamples = 1\nvalue = [1, 0]"] ;
734 -> 740 ;
741 [label="gini = 0.0\nsamples = 4\nvalue = [0, 4]"] ;
679 -> 741 ;
742 [label="gini = 0.0\nsamples = 5\nvalue = [0, 5]"] ;
678 -> 742 ;
743 [label="X[2867] <= 0.5\ngini = 0.198\nsamples = 9\nvalue = [1, 8]"] ;
13 -> 743 ;
744 [label="gini = 0.0\nsamples = 8\nvalue = [0, 8]"] ;
743 -> 744 ;
745 [label="gini = 0.0\nsamples = 1\nvalue = [1, 0]"] ;
743 -> 745 ;
746 [label="X[256] <= 0.5\ngini = 0.18\nsamples = 10\nvalue = [1, 9]"] ;
12 -> 746 ;
747 [label="gini = 0.0\nsamples = 8\nvalue = [0, 8]"] ;
746 -> 747 ;
748 [label="X[1058] <= 0.5\ngini = 0.5\nsamples = 2\nvalue = [1, 1]"] ;
746 -> 748 ;
749 [label="gini = 0.0\nsamples = 1\nvalue = [0, 1]"] ;
748 -> 749 ;
750 [label="gini = 0.0\nsamples = 1\nvalue = [1, 0]"] ;
748 -> 750 ;
751 [label="gini = 0.0\nsamples = 8\nvalue = [0, 8]"] ;
11 -> 751 ;
752 [label="gini = 0.0\nsamples = 7\nvalue = [0, 7]"] ;
10 -> 752 ;
753 [label="X[13] <= 0.5\ngini = 0.165\nsamples = 11\nvalue = [1, 10]"] ;
9 -> 753 ;
754 [label="gini = 0.0\nsamples = 10\nvalue = [0, 10]"] ;
753 -> 754 ;
755 [label="gini = 0.0\nsamples = 1\nvalue = [1, 0]"] ;
753 -> 755 ;
756 [label="gini = 0.0\nsamples = 33\nvalue = [33, 0]"] ;
8 -> 756 ;
757 [label="X[409] <= 0.5\ngini = 0.142\nsamples = 13\nvalue = [1, 12]"] ;
7 -> 757 ;
758 [label="X[1] <= 0.5\ngini = 0.18\nsamples = 10\nvalue = [1, 9]"] ;
757 -> 758 ;
759 [label="gini = 0.0\nsamples = 6\nvalue = [0, 6]"] ;
758 -> 759 ;
760 [label="X[2014] <= 0.5\ngini = 0.375\nsamples = 4\nvalue = [1, 3]"] ;
758 -> 760 ;
761 [label="gini = 0.0\nsamples = 3\nvalue = [0, 3]"] ;
760 -> 761 ;
762 [label="gini = 0.0\nsamples = 1\nvalue = [1, 0]"] ;
760 -> 762 ;
763 [label="gini = 0.0\nsamples = 3\nvalue = [0, 3]"] ;
757 -> 763 ;
764 [label="X[2256] <= 0.5\ngini = 0.117\nsamples = 16\nvalue = [1, 15]"] ;
6 -> 764 ;
765 [label="gini = 0.0\nsamples = 15\nvalue = [0, 15]"] ;
764 -> 765 ;
766 [label="gini = 0.0\nsamples = 1\nvalue = [1, 0]"] ;
764 -> 766 ;
767 [label="X[440] <= 0.5\ngini = 0.42\nsamples = 60\nvalue = [18, 42]"] ;
5 -> 767 ;
768 [label="X[63] <= 0.5\ngini = 0.388\nsamples = 57\nvalue = [15, 42]"] ;
767 -> 768 ;
769 [label="X[945] <= 0.5\ngini = 0.361\nsamples = 55\nvalue = [13, 42]"] ;
768 -> 769 ;
770 [label="X[1952] <= 0.5\ngini = 0.346\nsamples = 54\nvalue = [12, 42]"] ;
769 -> 770 ;
771 [label="X[1199] <= 0.5\ngini = 0.329\nsamples = 53\nvalue = [11, 42]"] ;
770 -> 771 ;
772 [label="X[1] <= 0.5\ngini = 0.311\nsamples = 52\nvalue = [10, 42]"] ;
771 -> 772 ;
773 [label="X[760] <= 0.5\ngini = 0.175\nsamples = 31\nvalue = [3, 28]"] ;
772 -> 773 ;
774 [label="X[1921] <= 0.5\ngini = 0.124\nsamples = 30\nvalue = [2, 28]"] ;
773 -> 774 ;
775 [label="X[1129] <= 0.5\ngini = 0.067\nsamples = 29\nvalue = [1, 28]"] ;
774 -> 775 ;
776 [label="gini = 0.0\nsamples = 28\nvalue = [0, 28]"] ;
775 -> 776 ;
777 [label="gini = 0.0\nsamples = 1\nvalue = [1, 0]"] ;
775 -> 777 ;
778 [label="gini = 0.0\nsamples = 1\nvalue = [1, 0]"] ;
774 -> 778 ;
779 [label="gini = 0.0\nsamples = 1\nvalue = [1, 0]"] ;
773 -> 779 ;
780 [label="X[570] <= 0.5\ngini = 0.444\nsamples = 21\nvalue = [7, 14]"] ;
772 -> 780 ;
781 [label="X[1055] <= 0.5\ngini = 0.42\nsamples = 20\nvalue = [6, 14]"] ;
780 -> 781 ;
782 [label="X[64] <= 0.5\ngini = 0.388\nsamples = 19\nvalue = [5, 14]"] ;
781 -> 782 ;
783 [label="X[2841] <= 0.5\ngini = 0.346\nsamples = 18\nvalue = [4, 14]"] ;
782 -> 783 ;
784 [label="X[193] <= 0.5\ngini = 0.291\nsamples = 17\nvalue = [3, 14]"] ;
783 -> 784 ;
785 [label="X[2423] <= 0.5\ngini = 0.219\nsamples = 16\nvalue = [2, 14]"] ;
784 -> 785 ;
786 [label="X[170] <= 0.5\ngini = 0.124\nsamples = 15\nvalue = [1, 14]"] ;
785 -> 786 ;
787 [label="gini = 0.0\nsamples = 14\nvalue = [0, 14]"] ;
786 -> 787 ;
788 [label="gini = 0.0\nsamples = 1\nvalue = [1, 0]"] ;
786 -> 788 ;
789 [label="gini = 0.0\nsamples = 1\nvalue = [1, 0]"] ;
785 -> 789 ;
790 [label="gini = 0.0\nsamples = 1\nvalue = [1, 0]"] ;
784 -> 790 ;
791 [label="gini = 0.0\nsamples = 1\nvalue = [1, 0]"] ;
783 -> 791 ;
792 [label="gini = 0.0\nsamples = 1\nvalue = [1, 0]"] ;
782 -> 792 ;
793 [label="gini = 0.0\nsamples = 1\nvalue = [1, 0]"] ;
781 -> 793 ;
794 [label="gini = 0.0\nsamples = 1\nvalue = [1, 0]"] ;
780 -> 794 ;
795 [label="gini = 0.0\nsamples = 1\nvalue = [1, 0]"] ;
771 -> 795 ;
796 [label="gini = 0.0\nsamples = 1\nvalue = [1, 0]"] ;
770 -> 796 ;
797 [label="gini = 0.0\nsamples = 1\nvalue = [1, 0]"] ;
769 -> 797 ;
798 [label="gini = 0.0\nsamples = 2\nvalue = [2, 0]"] ;
768 -> 798 ;
799 [label="gini = 0.0\nsamples = 3\nvalue = [3, 0]"] ;
767 -> 799 ;
800 [label="X[15] <= 0.5\ngini = 0.486\nsamples = 96\nvalue = [40, 56]"] ;
4 -> 800 ;
801 [label="X[72] <= 0.5\ngini = 0.497\nsamples = 85\nvalue = [39, 46]"] ;
800 -> 801 ;
802 [label="X[52] <= 0.5\ngini = 0.49\nsamples = 79\nvalue = [34, 45]"] ;
801 -> 802 ;
803 [label="X[293] <= 0.5\ngini = 0.498\nsamples = 73\nvalue = [34, 39]"] ;
802 -> 803 ;
804 [label="X[914] <= 0.5\ngini = 0.493\nsamples = 70\nvalue = [31, 39]"] ;
803 -> 804 ;
805 [label="X[437] <= 0.5\ngini = 0.489\nsamples = 68\nvalue = [29, 39]"] ;
804 -> 805 ;
806 [label="X[13] <= 0.5\ngini = 0.483\nsamples = 66\nvalue = [27, 39]"] ;
805 -> 806 ;
807 [label="X[159] <= 0.5\ngini = 0.49\nsamples = 63\nvalue = [27, 36]"] ;
806 -> 807 ;
808 [label="X[226] <= 0.5\ngini = 0.493\nsamples = 61\nvalue = [27, 34]"] ;
807 -> 808 ;
809 [label="X[44] <= 0.5\ngini = 0.498\nsamples = 58\nvalue = [27, 31]"] ;
808 -> 809 ;
810 [label="X[1] <= 0.5\ngini = 0.5\nsamples = 55\nvalue = [27, 28]"] ;
809 -> 810 ;
811 [label="X[117] <= 0.5\ngini = 0.489\nsamples = 33\nvalue = [19, 14]"] ;
810 -> 811 ;
812 [label="X[2189] <= 0.5\ngini = 0.495\nsamples = 31\nvalue = [17, 14]"] ;
811 -> 812 ;
813 [label="X[3075] <= 0.5\ngini = 0.491\nsamples = 30\nvalue = [17, 13]"] ;
812 -> 813 ;
814 [label="X[688] <= 0.5\ngini = 0.485\nsamples = 29\nvalue = [17, 12]"] ;
813 -> 814 ;
815 [label="X[1997] <= 0.5\ngini = 0.477\nsamples = 28\nvalue = [17, 11]"] ;
814 -> 815 ;
816 [label="X[3768] <= 0.5\ngini = 0.466\nsamples = 27\nvalue = [17, 10]"] ;
815 -> 816 ;
817 [label="X[2054] <= 0.5\ngini = 0.453\nsamples = 26\nvalue = [17, 9]"] ;
816 -> 817 ;
818 [label="X[3049] <= 0.5\ngini = 0.435\nsamples = 25\nvalue = [17, 8]"] ;
817 -> 818 ;
819 [label="X[687] <= 0.5\ngini = 0.413\nsamples = 24\nvalue = [17, 7]"] ;
818 -> 819 ;
820 [label="X[913] <= 0.5\ngini = 0.386\nsamples = 23\nvalue = [17, 6]"] ;
819 -> 820 ;
821 [label="X[3648] <= 0.5\ngini = 0.351\nsamples = 22\nvalue = [17, 5]"] ;
820 -> 821 ;
822 [label="X[534] <= 0.5\ngini = 0.308\nsamples = 21\nvalue = [17, 4]"] ;
821 -> 822 ;
823 [label="X[55] <= 0.5\ngini = 0.255\nsamples = 20\nvalue = [17, 3]"] ;
822 -> 823 ;
824 [label="X[601] <= 0.5\ngini = 0.188\nsamples = 19\nvalue = [17, 2]"] ;
823 -> 824 ;
825 [label="X[4505] <= 0.5\ngini = 0.105\nsamples = 18\nvalue = [17, 1]"] ;
824 -> 825 ;
826 [label="gini = 0.0\nsamples = 17\nvalue = [17, 0]"] ;
825 -> 826 ;
827 [label="gini = 0.0\nsamples = 1\nvalue = [0, 1]"] ;
825 -> 827 ;
828 [label="gini = 0.0\nsamples = 1\nvalue = [0, 1]"] ;
824 -> 828 ;
829 [label="gini = 0.0\nsamples = 1\nvalue = [0, 1]"] ;
823 -> 829 ;
830 [label="gini = 0.0\nsamples = 1\nvalue = [0, 1]"] ;
822 -> 830 ;
831 [label="gini = 0.0\nsamples = 1\nvalue = [0, 1]"] ;
821 -> 831 ;
832 [label="gini = 0.0\nsamples = 1\nvalue = [0, 1]"] ;
820 -> 832 ;
833 [label="gini = 0.0\nsamples = 1\nvalue = [0, 1]"] ;
819 -> 833 ;
834 [label="gini = 0.0\nsamples = 1\nvalue = [0, 1]"] ;
818 -> 834 ;
835 [label="gini = 0.0\nsamples = 1\nvalue = [0, 1]"] ;
817 -> 835 ;
836 [label="gini = 0.0\nsamples = 1\nvalue = [0, 1]"] ;
816 -> 836 ;
837 [label="gini = 0.0\nsamples = 1\nvalue = [0, 1]"] ;
815 -> 837 ;
838 [label="gini = 0.0\nsamples = 1\nvalue = [0, 1]"] ;
814 -> 838 ;
839 [label="gini = 0.0\nsamples = 1\nvalue = [0, 1]"] ;
813 -> 839 ;
840 [label="gini = 0.0\nsamples = 1\nvalue = [0, 1]"] ;
812 -> 840 ;
841 [label="gini = 0.0\nsamples = 2\nvalue = [2, 0]"] ;
811 -> 841 ;
842 [label="X[1459] <= 0.5\ngini = 0.463\nsamples = 22\nvalue = [8, 14]"] ;
810 -> 842 ;
843 [label="X[628] <= 0.5\ngini = 0.444\nsamples = 21\nvalue = [7, 14]"] ;
842 -> 843 ;
844 [label="X[2728] <= 0.5\ngini = 0.42\nsamples = 20\nvalue = [6, 14]"] ;
843 -> 844 ;
845 [label="X[115] <= 0.5\ngini = 0.388\nsamples = 19\nvalue = [5, 14]"] ;
844 -> 845 ;
846 [label="X[1330] <= 0.5\ngini = 0.346\nsamples = 18\nvalue = [4, 14]"] ;
845 -> 846 ;
847 [label="X[1231] <= 0.5\ngini = 0.291\nsamples = 17\nvalue = [3, 14]"] ;
846 -> 847 ;
848 [label="X[278] <= 0.5\ngini = 0.219\nsamples = 16\nvalue = [2, 14]"] ;
847 -> 848 ;
849 [label="X[960] <= 0.5\ngini = 0.124\nsamples = 15\nvalue = [1, 14]"] ;
848 -> 849 ;
850 [label="gini = 0.0\nsamples = 14\nvalue = [0, 14]"] ;
849 -> 850 ;
851 [label="gini = 0.0\nsamples = 1\nvalue = [1, 0]"] ;
849 -> 851 ;
852 [label="gini = 0.0\nsamples = 1\nvalue = [1, 0]"] ;
848 -> 852 ;
853 [label="gini = 0.0\nsamples = 1\nvalue = [1, 0]"] ;
847 -> 853 ;
854 [label="gini = 0.0\nsamples = 1\nvalue = [1, 0]"] ;
846 -> 854 ;
855 [label="gini = 0.0\nsamples = 1\nvalue = [1, 0]"] ;
845 -> 855 ;
856 [label="gini = 0.0\nsamples = 1\nvalue = [1, 0]"] ;
844 -> 856 ;
857 [label="gini = 0.0\nsamples = 1\nvalue = [1, 0]"] ;
843 -> 857 ;
858 [label="gini = 0.0\nsamples = 1\nvalue = [1, 0]"] ;
842 -> 858 ;
859 [label="gini = 0.0\nsamples = 3\nvalue = [0, 3]"] ;
809 -> 859 ;
860 [label="gini = 0.0\nsamples = 3\nvalue = [0, 3]"] ;
808 -> 860 ;
861 [label="gini = 0.0\nsamples = 2\nvalue = [0, 2]"] ;
807 -> 861 ;
862 [label="gini = 0.0\nsamples = 3\nvalue = [0, 3]"] ;
806 -> 862 ;
863 [label="gini = 0.0\nsamples = 2\nvalue = [2, 0]"] ;
805 -> 863 ;
864 [label="gini = 0.0\nsamples = 2\nvalue = [2, 0]"] ;
804 -> 864 ;
865 [label="gini = 0.0\nsamples = 3\nvalue = [3, 0]"] ;
803 -> 865 ;
866 [label="gini = 0.0\nsamples = 6\nvalue = [0, 6]"] ;
802 -> 866 ;
867 [label="X[3159] <= 0.5\ngini = 0.278\nsamples = 6\nvalue = [5, 1]"] ;
801 -> 867 ;
868 [label="gini = 0.0\nsamples = 5\nvalue = [5, 0]"] ;
867 -> 868 ;
869 [label="gini = 0.0\nsamples = 1\nvalue = [0, 1]"] ;
867 -> 869 ;
870 [label="X[65] <= 0.5\ngini = 0.165\nsamples = 11\nvalue = [1, 10]"] ;
800 -> 870 ;
871 [label="gini = 0.0\nsamples = 10\nvalue = [0, 10]"] ;
870 -> 871 ;
872 [label="gini = 0.0\nsamples = 1\nvalue = [1, 0]"] ;
870 -> 872 ;
873 [label="X[95] <= 0.5\ngini = 0.198\nsamples = 18\nvalue = [2, 16]"] ;
3 -> 873 ;
874 [label="gini = 0.0\nsamples = 16\nvalue = [0, 16]"] ;
873 -> 874 ;
875 [label="gini = 0.0\nsamples = 2\nvalue = [2, 0]"] ;
873 -> 875 ;
876 [label="X[14] <= 0.5\ngini = 0.031\nsamples = 64\nvalue = [63, 1]"] ;
2 -> 876 ;
877 [label="gini = 0.0\nsamples = 63\nvalue = [63, 0]"] ;
876 -> 877 ;
878 [label="gini = 0.0\nsamples = 1\nvalue = [0, 1]"] ;
876 -> 878 ;
879 [label="X[1675] <= 0.5\ngini = 0.12\nsamples = 47\nvalue = [3, 44]"] ;
1 -> 879 ;
880 [label="X[510] <= 0.5\ngini = 0.083\nsamples = 46\nvalue = [2, 44]"] ;
879 -> 880 ;
881 [label="X[728] <= 0.5\ngini = 0.043\nsamples = 45\nvalue = [1, 44]"] ;
880 -> 881 ;
882 [label="gini = 0.0\nsamples = 44\nvalue = [0, 44]"] ;
881 -> 882 ;
883 [label="gini = 0.0\nsamples = 1\nvalue = [1, 0]"] ;
881 -> 883 ;
884 [label="gini = 0.0\nsamples = 1\nvalue = [1, 0]"] ;
880 -> 884 ;
885 [label="gini = 0.0\nsamples = 1\nvalue = [1, 0]"] ;
879 -> 885 ;
886 [label="X[73] <= 0.5\ngini = 0.426\nsamples = 166\nvalue = [51, 115]"] ;
0 -> 886 [labeldistance=2.5, labelangle=-45, headlabel="False"] ;
887 [label="X[115] <= 0.5\ngini = 0.419\nsamples = 164\nvalue = [49, 115]"] ;
886 -> 887 ;
888 [label="X[278] <= 0.5\ngini = 0.428\nsamples = 158\nvalue = [49, 109]"] ;
887 -> 888 ;
889 [label="X[152] <= 0.5\ngini = 0.421\nsamples = 156\nvalue = [47, 109]"] ;
888 -> 889 ;
890 [label="X[52] <= 0.5\ngini = 0.414\nsamples = 154\nvalue = [45, 109]"] ;
889 -> 890 ;
891 [label="X[0] <= 0.5\ngini = 0.428\nsamples = 142\nvalue = [44, 98]"] ;
890 -> 891 ;
892 [label="X[573] <= 0.5\ngini = 0.417\nsamples = 135\nvalue = [40, 95]"] ;
891 -> 892 ;
893 [label="X[2495] <= 0.5\ngini = 0.413\nsamples = 134\nvalue = [39, 95]"] ;
892 -> 893 ;
894 [label="X[81] <= 0.5\ngini = 0.408\nsamples = 133\nvalue = [38, 95]"] ;
893 -> 894 ;
895 [label="X[1635] <= 0.5\ngini = 0.403\nsamples = 132\nvalue = [37, 95]"] ;
894 -> 895 ;
896 [label="X[630] <= 0.5\ngini = 0.399\nsamples = 131\nvalue = [36, 95]"] ;
895 -> 896 ;
897 [label="X[318] <= 0.5\ngini = 0.393\nsamples = 130\nvalue = [35, 95]"] ;
896 -> 897 ;
898 [label="X[2793] <= 0.5\ngini = 0.388\nsamples = 129\nvalue = [34, 95]"] ;
897 -> 898 ;
899 [label="X[172] <= 0.5\ngini = 0.383\nsamples = 128\nvalue = [33, 95]"] ;
898 -> 899 ;
900 [label="X[2254] <= 0.5\ngini = 0.399\nsamples = 120\nvalue = [33, 87]"] ;
899 -> 900 ;
901 [label="X[2850] <= 0.5\ngini = 0.393\nsamples = 119\nvalue = [32, 87]"] ;
900 -> 901 ;
902 [label="X[519] <= 0.5\ngini = 0.387\nsamples = 118\nvalue = [31, 87]"] ;
901 -> 902 ;
903 [label="X[1606] <= 0.5\ngini = 0.381\nsamples = 117\nvalue = [30, 87]"] ;
902 -> 903 ;
904 [label="X[1021] <= 0.5\ngini = 0.375\nsamples = 116\nvalue = [29, 87]"] ;
903 -> 904 ;
905 [label="X[1193] <= 0.5\ngini = 0.368\nsamples = 115\nvalue = [28, 87]"] ;
904 -> 905 ;
906 [label="X[240] <= 0.5\ngini = 0.361\nsamples = 114\nvalue = [27, 87]"] ;
905 -> 906 ;
907 [label="X[1112] <= 0.5\ngini = 0.354\nsamples = 113\nvalue = [26, 87]"] ;
906 -> 907 ;
908 [label="X[1209] <= 0.5\ngini = 0.347\nsamples = 112\nvalue = [25, 87]"] ;
907 -> 908 ;
909 [label="X[1517] <= 0.5\ngini = 0.339\nsamples = 111\nvalue = [24, 87]"] ;
908 -> 909 ;
910 [label="X[76] <= 0.5\ngini = 0.331\nsamples = 110\nvalue = [23, 87]"] ;
909 -> 910 ;
911 [label="X[807] <= 0.5\ngini = 0.322\nsamples = 109\nvalue = [22, 87]"] ;
910 -> 911 ;
912 [label="X[470] <= 0.5\ngini = 0.313\nsamples = 108\nvalue = [21, 87]"] ;
911 -> 912 ;
913 [label="X[70] <= 0.5\ngini = 0.304\nsamples = 107\nvalue = [20, 87]"] ;
912 -> 913 ;
914 [label="X[1036] <= 0.5\ngini = 0.294\nsamples = 106\nvalue = [19, 87]"] ;
913 -> 914 ;
915 [label="X[359] <= 0.5\ngini = 0.284\nsamples = 105\nvalue = [18, 87]"] ;
914 -> 915 ;
916 [label="X[1] <= 0.5\ngini = 0.273\nsamples = 104\nvalue = [17, 87]"] ;
915 -> 916 ;
917 [label="X[375] <= 0.5\ngini = 0.117\nsamples = 48\nvalue = [3, 45]"] ;
916 -> 917 ;
918 [label="X[311] <= 0.5\ngini = 0.081\nsamples = 47\nvalue = [2, 45]"] ;
917 -> 918 ;
919 [label="X[256] <= 0.5\ngini = 0.043\nsamples = 46\nvalue = [1, 45]"] ;
918 -> 919 ;
920 [label="gini = 0.0\nsamples = 44\nvalue = [0, 44]"] ;
919 -> 920 ;
921 [label="X[477] <= 0.5\ngini = 0.5\nsamples = 2\nvalue = [1, 1]"] ;
919 -> 921 ;
922 [label="gini = 0.0\nsamples = 1\nvalue = [1, 0]"] ;
921 -> 922 ;
923 [label="gini = 0.0\nsamples = 1\nvalue = [0, 1]"] ;
921 -> 923 ;
924 [label="gini = 0.0\nsamples = 1\nvalue = [1, 0]"] ;
918 -> 924 ;
925 [label="gini = 0.0\nsamples = 1\nvalue = [1, 0]"] ;
917 -> 925 ;
926 [label="X[194] <= 0.5\ngini = 0.375\nsamples = 56\nvalue = [14, 42]"] ;
916 -> 926 ;
927 [label="X[632] <= 0.5\ngini = 0.361\nsamples = 55\nvalue = [13, 42]"] ;
926 -> 927 ;
928 [label="X[1207] <= 0.5\ngini = 0.346\nsamples = 54\nvalue = [12, 42]"] ;
927 -> 928 ;
929 [label="X[310] <= 0.5\ngini = 0.329\nsamples = 53\nvalue = [11, 42]"] ;
928 -> 929 ;
930 [label="X[2035] <= 0.5\ngini = 0.311\nsamples = 52\nvalue = [10, 42]"] ;
929 -> 930 ;
931 [label="X[1239] <= 0.5\ngini = 0.291\nsamples = 51\nvalue = [9, 42]"] ;
930 -> 931 ;
932 [label="X[2357] <= 0.5\ngini = 0.269\nsamples = 50\nvalue = [8, 42]"] ;
931 -> 932 ;
933 [label="X[862] <= 0.5\ngini = 0.245\nsamples = 49\nvalue = [7, 42]"] ;
932 -> 933 ;
934 [label="X[965] <= 0.5\ngini = 0.219\nsamples = 48\nvalue = [6, 42]"] ;
933 -> 934 ;
935 [label="X[1584] <= 0.5\ngini = 0.19\nsamples = 47\nvalue = [5, 42]"] ;
934 -> 935 ;
936 [label="X[1586] <= 0.5\ngini = 0.159\nsamples = 46\nvalue = [4, 42]"] ;
935 -> 936 ;
937 [label="X[602] <= 0.5\ngini = 0.124\nsamples = 45\nvalue = [3, 42]"] ;
936 -> 937 ;
938 [label="X[688] <= 0.5\ngini = 0.087\nsamples = 44\nvalue = [2, 42]"] ;
937 -> 938 ;
939 [label="X[15] <= 0.5\ngini = 0.046\nsamples = 42\nvalue = [1, 41]"] ;
938 -> 939 ;
940 [label="gini = 0.0\nsamples = 39\nvalue = [0, 39]"] ;
939 -> 940 ;
941 [label="X[2308] <= 0.5\ngini = 0.444\nsamples = 3\nvalue = [1, 2]"] ;
939 -> 941 ;
942 [label="X[767] <= 0.5\ngini = 0.5\nsamples = 2\nvalue = [1, 1]"] ;
941 -> 942 ;
943 [label="gini = 0.0\nsamples = 1\nvalue = [1, 0]"] ;
942 -> 943 ;
944 [label="gini = 0.0\nsamples = 1\nvalue = [0, 1]"] ;
942 -> 944 ;
945 [label="gini = 0.0\nsamples = 1\nvalue = [0, 1]"] ;
941 -> 945 ;
946 [label="X[190] <= 0.5\ngini = 0.5\nsamples = 2\nvalue = [1, 1]"] ;
938 -> 946 ;
947 [label="gini = 0.0\nsamples = 1\nvalue = [1, 0]"] ;
946 -> 947 ;
948 [label="gini = 0.0\nsamples = 1\nvalue = [0, 1]"] ;
946 -> 948 ;
949 [label="gini = 0.0\nsamples = 1\nvalue = [1, 0]"] ;
937 -> 949 ;
950 [label="gini = 0.0\nsamples = 1\nvalue = [1, 0]"] ;
936 -> 950 ;
951 [label="gini = 0.0\nsamples = 1\nvalue = [1, 0]"] ;
935 -> 951 ;
952 [label="gini = 0.0\nsamples = 1\nvalue = [1, 0]"] ;
934 -> 952 ;
953 [label="gini = 0.0\nsamples = 1\nvalue = [1, 0]"] ;
933 -> 953 ;
954 [label="gini = 0.0\nsamples = 1\nvalue = [1, 0]"] ;
932 -> 954 ;
955 [label="gini = 0.0\nsamples = 1\nvalue = [1, 0]"] ;
931 -> 955 ;
956 [label="gini = 0.0\nsamples = 1\nvalue = [1, 0]"] ;
930 -> 956 ;
957 [label="gini = 0.0\nsamples = 1\nvalue = [1, 0]"] ;
929 -> 957 ;
958 [label="gini = 0.0\nsamples = 1\nvalue = [1, 0]"] ;
928 -> 958 ;
959 [label="gini = 0.0\nsamples = 1\nvalue = [1, 0]"] ;
927 -> 959 ;
960 [label="gini = 0.0\nsamples = 1\nvalue = [1, 0]"] ;
926 -> 960 ;
961 [label="gini = 0.0\nsamples = 1\nvalue = [1, 0]"] ;
915 -> 961 ;
962 [label="gini = 0.0\nsamples = 1\nvalue = [1, 0]"] ;
914 -> 962 ;
963 [label="gini = 0.0\nsamples = 1\nvalue = [1, 0]"] ;
913 -> 963 ;
964 [label="gini = 0.0\nsamples = 1\nvalue = [1, 0]"] ;
912 -> 964 ;
965 [label="gini = 0.0\nsamples = 1\nvalue = [1, 0]"] ;
911 -> 965 ;
966 [label="gini = 0.0\nsamples = 1\nvalue = [1, 0]"] ;
910 -> 966 ;
967 [label="gini = 0.0\nsamples = 1\nvalue = [1, 0]"] ;
909 -> 967 ;
968 [label="gini = 0.0\nsamples = 1\nvalue = [1, 0]"] ;
908 -> 968 ;
969 [label="gini = 0.0\nsamples = 1\nvalue = [1, 0]"] ;
907 -> 969 ;
970 [label="gini = 0.0\nsamples = 1\nvalue = [1, 0]"] ;
906 -> 970 ;
971 [label="gini = 0.0\nsamples = 1\nvalue = [1, 0]"] ;
905 -> 971 ;
972 [label="gini = 0.0\nsamples = 1\nvalue = [1, 0]"] ;
904 -> 972 ;
973 [label="gini = 0.0\nsamples = 1\nvalue = [1, 0]"] ;
903 -> 973 ;
974 [label="gini = 0.0\nsamples = 1\nvalue = [1, 0]"] ;
902 -> 974 ;
975 [label="gini = 0.0\nsamples = 1\nvalue = [1, 0]"] ;
901 -> 975 ;
976 [label="gini = 0.0\nsamples = 1\nvalue = [1, 0]"] ;
900 -> 976 ;
977 [label="gini = 0.0\nsamples = 8\nvalue = [0, 8]"] ;
899 -> 977 ;
978 [label="gini = 0.0\nsamples = 1\nvalue = [1, 0]"] ;
898 -> 978 ;
979 [label="gini = 0.0\nsamples = 1\nvalue = [1, 0]"] ;
897 -> 979 ;
980 [label="gini = 0.0\nsamples = 1\nvalue = [1, 0]"] ;
896 -> 980 ;
981 [label="gini = 0.0\nsamples = 1\nvalue = [1, 0]"] ;
895 -> 981 ;
982 [label="gini = 0.0\nsamples = 1\nvalue = [1, 0]"] ;
894 -> 982 ;
983 [label="gini = 0.0\nsamples = 1\nvalue = [1, 0]"] ;
893 -> 983 ;
984 [label="gini = 0.0\nsamples = 1\nvalue = [1, 0]"] ;
892 -> 984 ;
985 [label="X[311] <= 0.5\ngini = 0.49\nsamples = 7\nvalue = [4, 3]"] ;
891 -> 985 ;
986 [label="X[3756] <= 0.5\ngini = 0.32\nsamples = 5\nvalue = [4, 1]"] ;
985 -> 986 ;
987 [label="gini = 0.0\nsamples = 4\nvalue = [4, 0]"] ;
986 -> 987 ;
988 [label="gini = 0.0\nsamples = 1\nvalue = [0, 1]"] ;
986 -> 988 ;
989 [label="gini = 0.0\nsamples = 2\nvalue = [0, 2]"] ;
985 -> 989 ;
990 [label="X[897] <= 0.5\ngini = 0.153\nsamples = 12\nvalue = [1, 11]"] ;
890 -> 990 ;
991 [label="gini = 0.0\nsamples = 11\nvalue = [0, 11]"] ;
990 -> 991 ;
992 [label="gini = 0.0\nsamples = 1\nvalue = [1, 0]"] ;
990 -> 992 ;
993 [label="gini = 0.0\nsamples = 2\nvalue = [2, 0]"] ;
889 -> 993 ;
994 [label="gini = 0.0\nsamples = 2\nvalue = [2, 0]"] ;
888 -> 994 ;
995 [label="gini = 0.0\nsamples = 6\nvalue = [0, 6]"] ;
887 -> 995 ;
996 [label="gini = 0.0\nsamples = 2\nvalue = [2, 0]"] ;
886 -> 996 ;
}
